svm_type c_svc
kernel_type rbf
gamma 0.25
nr_class 4
total_sv 38211
rho -0.850102 -0.318349 -0.567637 0.305189 0.012724 -0.170091
label 2 1 3 4
nr_sv 15607 9493 8059 5052
SV
0.06973977774305951 1 1 1:45.553673 2:102.66776 3:2.7805338 4:5.7803138 
0.03474318588405874 0.1711559560213964 0 1:23.746668 2:86.109642 3:4.2482397 4:16.770421 
0 0 1 1:38.673298 2:106.28361 3:3.1647969 4:7.9706521 
0.02027061537027981 0.1200286824934702 0.08165291836926331 1:9.3581256 2:53.998207 3:7.038244 4:50.43202 
0.03432799607063967 0.181846466676426 0.03247302498347793 1:16.332129 2:72.825242 3:5.237603 4:26.744484 
0 0 1 1:40.325322 2:109.79075 3:3.0432786 4:7.1409559 
0.01036847784066662 0.03609712772886879 0 1:28.019379 2:94.544946 3:3.7860394 4:12.774394 
0.01812470149286034 0.05600378623440973 1 1:48.164537 2:120.32582 3:2.6544528 4:4.5788122 
0.004474047056756738 0.02993389320097281 0 1:22.568401 2:86.018426 3:4.2856785 4:17.117856 
0.01154114668211731 0.07671147675578568 1 1:62.743322 2:134.74813 3:2.1811645 4:1.7306303 
0.03781681385980568 0.142236452927006 1 1:52.5544 2:125.61312 3:2.4972405 4:3.6029658 
0.07935222835800959 0.3457559114554468 1 1:10.284411 2:57.114076 3:6.5640221 4:43.670413 
0 0 0.004624633208179206 1:6.0809976 2:44.528436 3:8.7542827 4:78.739583 
0 0 1 1:47.819183 2:120.05436 3:2.6276337 4:4.520509 
0.04804822498996009 0.2159417408270319 0 1:40.828088 2:113.75498 3:2.9517829 4:6.5930735 
0 0 1 1:70.799134 2:142.86123 3:1.9507659 4:0.47563275 
0.02664463569354941 0.1508310856126578 0 1:10.740267 2:59.338814 3:6.3607304 4:40.745656 
0.05362260447666169 0.2760634514243862 0.1698653591301935 1:6.9373226 2:47.400371 3:8.11045 4:67.744793 
0.02288827087206192 0.1686002853340107 0 1:43.421091 2:117.79543 3:2.8108784 4:5.6418384 
0 0 0.1089299601686583 1:19.693671 2:80.918858 3:4.4991569 4:19.200133 
0 0 1 1:60.447452 2:133.2099 3:2.2067573 4:1.9653906 
0.01018618490861429 0 0.00712713204890577 1:6.9119445 2:48.726382 3:8.1340548 4:67.554807 
0.02956099953581665 0.1500236083606239 0 1:10.123618 2:57.945704 3:6.5200146 4:42.988593 
0.7365622770796907 1 0 1:49.828687 2:106.55475 3:2.602155 4:4.5320006 
0.01861920940269796 0.02684853858148221 0 1:109.31258 2:167.49116 3:1.270292 4:-3.6422895 
0.001825782867021187 0.009645631252850699 1 1:117.93595 2:175.10805 3:1.0739377 4:-4.4428477 
0.002602030734871626 0.02606739509592422 0 1:177.09229 2:178.58064 3:0.47610631 4:-12.934208 
0.1499239865901008 1 0.3075168067090333 1:118.99235 2:129.72677 3:0.90873584 4:-9.3550267 
0.4639296732730337 0.08618831276166967 0.3761116171275799 1:107.43219 2:105.0113 3:0.94382338 4:-12.475866 
0.1594891194521968 0.6601069076521505 0.4193153682815844 1:53.862081 2:73.015876 3:2.2509461 4:1.5940135 
0.8605838404016496 0.03469767960296474 0 1:41.579044 2:63.498445 3:3.420009 4:12.445753 
0 0 0.0396946209888762 1:34.797557 2:55.89896 3:4.3173135 4:22.307334 
0 1 0 1:30.067843 2:54.109089 3:5.0020477 4:29.444164 
0.1444555555203434 1 0.1082326140653392 1:25.711806 2:52.145979 3:5.6978618 4:37.716707 
0.1008734806982519 0.6360270779811293 0 1:25.074166 2:52.347971 3:6.0536121 4:41.294481 
0.0420682722029377 0 0 1:25.027845 2:52.569821 3:6.1991174 4:41.840717 
0.1191454694185081 0.2731771728983783 1 1:21.206189 2:50.484349 3:6.8891503 4:51.521502 
0.1049588479223365 0.2822697937250564 1 1:18.82101 2:47.131063 3:7.2787028 4:57.319764 
0.06282028696203634 0.1886333156294842 1 1:20.230012 2:52.407922 3:6.7784056 4:48.202657 
0.02481269947462102 0.1119163093976973 1 1:21.777757 2:54.729582 3:6.4537106 4:43.328047 
0.03828145479190472 0 1 1:20.994173 2:54.728565 3:6.5044 4:43.933165 
0 0 1 1:19.875928 2:53.690479 3:6.7085337 4:46.723524 
0.01406836285794323 0.1726449303393502 1 1:20.313108 2:55.829698 3:6.5297243 4:43.790272 
0.04532506404459311 0.2163834769268105 1 1:19.865138 2:58.832934 3:6.1547799 4:38.499764 
0.01340087066610266 0.04367547618301357 1 1:19.936886 2:59.579313 3:6.1180238 4:37.924194 
0.03454170468281414 0 1 1:21.358476 2:60.881556 3:5.7727569 4:33.572105 
0 0 1 1:20.778775 2:60.585106 3:5.9778514 4:36.069203 
0 0 1 1:20.445974 2:60.699273 3:5.9725587 4:36.147422 
0.05896425750103707 0.233378566086925 1 1:19.520709 2:59.707689 3:5.9594244 4:35.952301 
0 0 1 1:18.769251 2:59.832502 3:6.0732122 4:37.58429 
0.01411544650310919 0.0912851181259328 0.6994009346849542 1:18.385782 2:59.639552 3:6.0730807 4:37.565983 
0 0 1 1:18.999207 2:61.09586 3:5.9744906 4:36.057465 
0 0 1 1:20.973202 2:66.365935 3:5.5318647 4:30.371398 
0 0 1 1:21.86484 2:65.447639 3:5.5297519 4:30.405752 
0 0 1 1:22.639087 2:67.022378 3:5.3301752 4:28.061183 
0.0407668898258217 0.1923579243968438 1 1:20.356375 2:64.056838 3:5.6205482 4:31.591893 
0.04897350479900404 0.2423580168248548 0.9621091481932303 1:18.201093 2:61.34745 3:5.8453296 4:34.555523 
0.08323106160763277 0.3786208852914256 0 1:15.620733 2:56.824888 3:6.3974128 4:41.956128 
0 0 1 1:19.62098 2:64.492692 3:5.623699 4:31.673015 
0.005007464371135978 0.0457715442059235 1 1:23.522563 2:70.88057 3:5.0976597 4:25.341916 
0 0 1 1:24.596307 2:72.390246 3:4.923213 4:23.490651 
0.002771945030047813 0 1 1:24.590382 2:73.596755 3:4.9228765 4:23.407126 
0 0 1 1:24.204905 2:71.251443 3:4.9311127 4:23.697777 
0 0 1 1:23.919807 2:71.69638 3:5.011658 4:24.438821 
0.01054663636210858 0.01818149063659225 1 1:25.473305 2:75.689349 3:4.7772982 4:21.786549 
0 0 1 1:25.694178 2:75.17079 3:4.767379 4:21.82033 
0 0 1 1:23.350209 2:71.775583 3:4.9947293 4:24.292575 
0 0 0.3543724207432776 1:20.898817 2:68.489429 3:5.2900501 4:27.667629 
0.05410840485811283 0.2519086561336217 0 1:19.333712 2:65.998481 3:5.4556512 4:29.51874 
0 0.04632093751517748 0 1:24.570414 2:74.828809 3:4.7737475 4:21.900913 
0.02539604383915732 0 0 1:18.36907 2:65.600679 3:5.5377022 4:30.622723 
0 0 1 1:26.939896 2:78.625609 3:4.4893486 4:19.022712 
0.06207868074596325 0.2877550522578048 0 1:22.357041 2:71.76817 3:4.9321673 4:23.74074 
0.003389056980293692 0 0 1:20.201464 2:69.833047 3:5.1647914 4:26.213195 
0 0 1 1:25.396624 2:79.463688 3:4.5127313 4:19.265945 
0 0 1 1:27.573558 2:81.734636 3:4.3051334 4:17.289859 
0 0 1 1:27.142386 2:82.311114 3:4.305053 4:17.248429 
0.05857555637215055 0.2778536710839006 0 1:19.0056 2:68.483954 3:5.2105278 4:26.841892 
0.02547631272114091 0.08587631538370497 0 1:17.573211 2:67.258032 3:5.4231509 4:29.109396 
0.0425978110828428 0.2059001914119569 0 1:23.151612 2:76.564631 3:4.6092166 4:20.318291 
0 0 1 1:28.729236 2:84.559382 3:4.0987612 4:15.503532 
0.03165264251823842 0 0 1:28.960278 2:84.825917 3:4.0740436 4:15.204327 
0.07377761706248348 0.330061114791641 0 1:21.200403 2:73.935025 3:4.8423114 4:22.699676 
0.01202448824574908 0.1358776544218771 0 1:26.001095 2:81.947211 3:4.268649 4:17.040221 
0 0 1 1:28.75773 2:86.123135 3:4.0905682 4:15.338615 
0 0 1 1:31.107859 2:90.220644 3:3.8666812 4:13.343406 
0 0 1 1:33.855503 2:94.152695 3:3.6603707 4:11.60782 
0 0 1 1:35.403849 2:95.072158 3:3.5455223 4:10.744076 
0 0 1 1:33.216053 2:91.868377 3:3.7031161 4:12.054736 
0 0 0.02817092179184692 1:30.641425 2:90.118559 3:3.8709694 4:13.418455 
0 0 1 1:33.991425 2:94.961225 3:3.5975977 4:11.164516 
0 0 1 1:32.308268 2:92.202416 3:3.7567532 4:12.501997 
0 0 1 1:33.333939 2:94.13187 3:3.6682105 4:11.802613 
0.001273043127651348 0 0 1:27.719171 2:85.983886 3:4.0133547 4:14.727599 
0.0133365470554073 0.01473823714025362 0 1:24.048969 2:81.164845 3:4.3620402 4:17.993968 
0 0 1 1:40.492303 2:104.40793 3:3.1675784 4:7.8903822 
0 0 1 1:36.979092 2:100.03232 3:3.3816679 4:9.5273853 
0 0 1 1:37.147504 2:100.78242 3:3.3346684 4:9.1350806 
0.008545473316050918 0 1 1:36.666027 2:99.568652 3:3.345167 4:9.2205762 
0 0 1 1:37.754213 2:100.92634 3:3.3002326 4:8.8917679 
0 0 1 1:43.293984 2:109.22489 3:3.0255813 4:6.8632724 
0 0.1486981368953518 1 1:41.917283 2:106.90661 3:3.120191 4:7.5586667 
0 0 0.9519122332480248 1:40.445426 2:103.38845 3:3.144278 4:7.7411225 
0.008847374142683098 0 0 1:34.390033 2:96.846532 3:3.4302578 4:9.9464936 
0 0 0.3792234480398251 1:33.677127 2:95.970299 3:3.5594468 4:10.938253 
0 0 0.3998543759250137 1:38.900503 2:102.94571 3:3.2182297 4:8.2729563 
0.04983083657227359 0.06022105307704211 0 1:24.64861 2:83.285089 3:4.2014005 4:16.50866 
0.02913837464185638 0.1243233255008503 0.07481382817297896 1:5.0356522 2:38.090992 3:10.156913 4:107.49595 
0 0 0.2627477738030751 1:15.011109 2:66.887183 3:5.4939724 4:30.047765 
0.04027399241354378 0.02103674367729536 0 1:49.316715 2:118.37391 3:2.6888124 4:4.7046299 
0 0 1 1:49.588719 2:116.31036 3:2.6835783 4:4.7043589 
0 0 1 1:53.61126 2:120.07795 3:2.4974453 4:3.5105546 
0 0 1 1:45.771844 2:115.10554 3:2.8194555 4:5.5936542 
0.02171077916545317 0.1408817402539443 0 1:36.823501 2:105.98087 3:3.2447054 4:8.5604786 
0.02323626832099026 0.1218801076629304 0.07851160230429793 1:4.6835335 2:37.348407 3:10.463477 4:114.087 
0.01789387687313527 0.08253521787852049 0.05329909743484771 1:4.8171811 2:38.080186 3:10.220312 4:108.79859 
0.02736213301686868 0.1339465238030619 0.08348375820219067 1:5.1118159 2:39.400527 3:10.037632 4:104.68581 
0.0246708234721054 0.1175418258743273 0 1:24.243927 2:87.998983 3:4.1414646 4:15.870038 
0 0 1 1:43.674196 2:114.4092 3:2.8704972 4:5.971874 
0 0 1 1:48.96019 2:119.69828 3:2.615575 4:4.3687883 
0 0 1 1:68.895371 2:136.48474 3:2.0383427 4:0.80215201 
0.04876155484535911 0.1971666208050071 0.3344433034662912 1:71.13023 2:141.662 3:2.0067427 4:0.64153616 
0 0 1 1:55.626814 2:126.20568 3:2.3963399 4:2.9602885 
0 0 1 1:45.053457 2:116.14973 3:2.7894331 4:5.4877052 
0 0 0.2842459386889196 1:23.050405 2:84.410417 3:4.2004106 4:16.557069 
0 0 1 1:41.379038 2:113.00224 3:2.9519738 4:6.5620521 
0 0 1 1:45.380085 2:116.08383 3:2.749853 4:5.2666756 
0.005107683303490538 0 1 1:48.984909 2:120.31068 3:2.6175199 4:4.4032011 
0.02726816583359873 0.1095065226337315 1 1:49.23533 2:122.89034 3:2.6085237 4:4.3049921 
0 0 1 1:50.742245 2:122.25351 3:2.5278383 4:3.8691377 
0 0 1 1:48.832834 2:121.17795 3:2.6061214 4:4.3212343 
0 0.0001930547138617351 1 1:65.968173 2:138.2339 3:2.0858009 4:1.1919259 
0 0 1 1:51.962894 2:123.55291 3:2.5026209 4:3.6918 
0 0 0.02586272631412699 1:67.580939 2:135.66035 3:2.0096453 4:0.79416166 
0 0 1 1:52.335846 2:125.15678 3:2.4751121 4:3.5451629 
0 0 1 1:53.173855 2:125.18922 3:2.448226 4:3.3520119 
0.00325191338057657 0 0 1:80.694886 2:147.83084 3:1.7493495 4:-0.73045463 
0.02734357925226624 0.0562501102875113 1 1:73.611361 2:140.82829 3:1.8595706 4:-0.081282866 
0.01918823309644262 0.02976524904492451 0 1:77.218461 2:146.07381 3:1.8369941 4:-0.24207045 
0 0 1 1:50.864486 2:123.28142 3:2.5066932 4:3.7415866 
0 0 1 1:58.338526 2:130.09789 3:2.2663028 4:2.2767255 
0.002801919786980121 0.00787820905172339 1 1:55.334997 2:129.32538 3:2.3730766 4:2.9320997 
0 0 1 1:53.395469 2:127.39628 3:2.4260947 4:3.2671766 
0 0 1 1:50.468307 2:122.04422 3:2.5323413 4:3.9275343 
0 0 0.192652658715574 1:47.914509 2:119.9874 3:2.611751 4:4.4223469 
0 0 0.6406007481328649 1:48.237511 2:120.72798 3:2.6059507 4:4.3711926 
0.3535416829200667 1 1 1:58.357559 2:117.51383 3:2.3413703 4:2.7111902 
1 1 0 1:60.864694 2:115.59618 3:2.269708 4:2.1796742 
0 0 0.7320291207415266 1:54.156086 2:125.69436 3:2.3875575 4:3.0690051 
0.02410418152930351 0.1587797013744052 0 1:74.367528 2:142.52093 3:1.8141143 4:-0.2813974 
0.008741216246576165 0.1076291948290153 1 1:72.553559 2:144.55265 3:1.9122652 4:0.27210363 
0 0 0.1233339951452786 1:62.858539 2:135.17598 3:2.1274681 4:1.5262959 
0 0 0.6508204249661467 1:63.324906 2:136.04237 3:2.1096306 4:1.3955204 
0.07418030907563658 0.2395202811750363 1 1:100.51134 2:156.82707 3:1.3619043 4:-3.122166 
0.02423917516012449 0.09598909717264106 0 1:43.457972 2:113.23835 3:2.7465109 4:5.3657762 
0 0 0.2039396113706637 1:15.327654 2:70.143715 3:5.202208 4:26.699338 
0 0.00406634252057925 0 1:103.61065 2:162.54724 3:1.3229585 4:-3.2201529 
0 0.1085338638036715 0.6706678129795062 1:130.68123 2:170.93423 3:0.9746398 4:-6.1390023 
0 0 1 1:61.939407 2:136.02202 3:2.1425827 4:1.6554427 
0 0.00765618041507856 0 1:7.0356375 2:47.864521 3:8.0541802 4:66.81528 
0.0008424896768076178 0 0 1:20.095808 2:81.361735 3:4.43538 4:18.672634 
0.00908729649592066 0 1 1:22.826652 2:86.239155 3:4.1024394 4:15.596999 
0.006545525456799362 0 0 1:34.729266 2:105.27402 3:3.1724315 4:8.2018719 
0.03973542285135503 0.04595055731276332 0 1:130.55414 2:171.83619 3:0.94791173 4:-6.1105265 
0.08685371217460702 0.397837223317546 0.4473968421414247 1:12.196404 2:62.857315 3:5.8652158 4:34.486092 
0 0 1 1:92.886385 2:159.22514 3:1.4872776 4:-2.0801788 
0.04234134109205862 0.1824924620757131 0 1:70.298214 2:140.43043 3:1.8714587 4:0.15018476 
0 0 0.006397688221168273 1:64.20657 2:137.88374 3:2.0703945 4:1.2421337 
0 0.01736755750861986 0 1:92.995694 2:157.2294 3:1.4915291 4:-2.1328234 
0 0 1 1:67.501011 2:140.29961 3:1.9974322 4:0.84227891 
0.00209597418194599 0.03252448061217487 0 1:130.48528 2:175.0287 3:0.96847013 4:-5.8312769 
0 0.01663806601402103 0 1:104.87327 2:165.54927 3:1.3064055 4:-3.2339713 
0 0 0.4291215186621849 1:80.124938 2:150.38943 3:1.7010594 4:-0.79673939 
0.06471670708799158 0.2993294929142416 0.1905218373958435 1:4.3848388 2:37.236147 3:10.376492 4:112.09599 
0.05825087497256886 0.2688317920661741 0.1707947548370617 1:8.3669352 2:52.229253 3:7.2791834 4:54.169606 
0 0 1 1:143.33945 2:174.2394 3:0.80981363 4:-7.6844802 
0.09751467441012482 0.4461137411277645 0.2165498492867287 1:175.09488 2:183.95719 3:0.53018248 4:-11.633056 
0.007292154079436998 0.07010905786757614 0 1:152.46634 2:176.00554 3:0.71520539 4:-8.8820287 
0.0281007115835172 0.06445502346011607 0 1:107.73155 2:164.35575 3:1.2183079 4:-3.760616 
0 0.01770612643486958 1 1:113.94556 2:164.88171 3:1.1557761 4:-4.4220627 
0 0 1 1:72.409156 2:145.44261 3:1.8749622 4:0.14600043 
0.01352047470527923 0.05581094968342761 0 1:38.142841 2:111.77477 3:3.0330547 4:7.1951174 
0.05878073794661228 0.2717684175938468 0.1683997402474479 1:5.4825621 2:41.878592 3:9.1916832 4:87.450368 
0 0 1 1:73.177964 2:145.54782 3:1.8644988 4:0.079325769 
0 0 1 1:63.261355 2:136.1238 3:2.0979232 4:1.4164424 
0.08853650307612025 0.4084556587375225 0.2583109907886071 1:3.8781357 2:35.917642 3:11.237705 4:130.97762 
0.07184873767854255 0.3231439683503629 0.2054187855282338 1:3.4149387 2:33.153126 3:11.98312 4:149.6699 
0.04232354486871596 0.1803172291153327 0.1146501292338017 1:3.4625766 2:33.446739 3:11.898866 4:146.9996 
0.06814847846448097 0.3036224939538586 0.1940567994830268 1:3.7713531 2:35.00657 3:11.326443 4:133.28432 
0.08490328905374665 0.388966832871011 0.2472365346915925 1:3.5304401 2:33.8851 3:11.805418 4:145.08033 
0.05611553141363631 0.3323513827974446 0.2091928400968925 1:3.7110288 2:34.375964 3:11.404176 4:135.47033 
0.05348197280989268 0.2388524774512146 0.1514940618633072 1:4.6880623 2:39.115202 3:9.9805961 4:103.01406 
1 1 0.5594869309901268 1:52.166227 2:109.04078 3:2.5271124 4:3.9887532 
0.1387860297376347 0.1232526541201147 1 1:117.26994 2:159.12236 3:1.2048525 4:-5.0139067 
0.03959282615875798 0.1770966472378074 1 1:150.84936 2:184.54217 3:0.69616225 4:-7.8450148 
0.05446343008388147 0.2391928612570227 1 1:108.38048 2:171.04127 3:1.236764 4:-3.4586753 
0 0 1 1:112.73525 2:173.01435 3:1.1761992 4:-3.8584962 
0.01189199956587758 0.08422965848048945 1 1:82.24922 2:154.67573 3:1.6410215 4:-1.0655975 
0.001685141855896576 0.01456606584354572 0 1:71.592153 2:146.98221 3:1.8615077 4:0.15224487 
0.0628296224310385 0.2853814755558553 1 1:123.98769 2:177.69946 3:1.0166836 4:-4.9521693 
0 0 1 1:117.94908 2:175.53447 3:1.0912822 4:-4.3747765 
0.115845128922814 0.5270507535918563 0.3271832613397387 1:206.37375 2:186.46069 3:0.19921464 4:-17.835353 
0 0 1 1:175.2799 2:188.05525 3:0.47029458 4:-11.122905 
0.02278409828276806 0.1404317749508801 1 1:94.446309 2:163.83344 3:1.4325932 4:-2.2260608 
0.03046510680770805 0.1659407049058749 0 1:59.054536 2:135.75317 3:2.1693278 4:1.8482188 
0.02571507731568042 0.06957839409392817 0 1:42.428552 2:118.53888 3:2.7663358 4:5.3910545 
0.002087382059424341 0.02899707558519177 0 1:47.295243 2:124.57241 3:2.5703296 4:4.1637045 
0.006540320376586687 0.002878532032551531 0 1:48.709186 2:125.70335 3:2.5197056 4:3.8800405 
0 0 1 1:111.29232 2:171.28319 3:1.1693993 4:-3.8608131 
0.1491913668633958 0.6784284327349074 0.4307974975466408 1:220.58441 2:187.08632 3:0.083094388 4:-21.440575 
0.07143720121163255 0.3299544430349303 1 1:162.76153 2:185.99505 3:0.57877102 4:-9.3917393 
0.06414407101250269 0.2931604397157369 1 1:141.84988 2:184.30539 3:0.81665897 4:-6.623876 
0.04333446679852219 0.2472154985265602 1 1:124.37026 2:175.70548 3:0.98467692 4:-5.1710216 
0.04321225821419653 0.2265773953205293 1 1:105.83295 2:169.17893 3:1.252007 4:-3.3092201 
0.02254181055672322 0.1215349911894391 1 1:89.919373 2:160.51724 3:1.4988095 4:-1.8332799 
0.02162948008677911 0.06955126859269666 0 1:93.119763 2:164.11377 3:1.4380447 4:-2.1379451 
0 0 1 1:98.851091 2:165.24031 3:1.3410983 4:-2.7379017 
0.01528493193358635 0 1 1:112.90498 2:172.98329 3:1.148637 4:-3.9603777 
0.001327702318196239 0.006436070423964269 1 1:143.05964 2:183.12456 3:0.79026146 4:-6.9014201 
0.05910236545309253 0.2615380316611802 1 1:157.64997 2:187.84779 3:0.63699728 4:-8.4413799 
0 0 1 1:93.335207 2:163.64753 3:1.4441691 4:-2.1383682 
0 0 1 1:76.788165 2:151.36464 3:1.7297658 4:-0.5406539 
0.00871553293701138 0.09495445329638472 0 1:77.428665 2:153.66984 3:1.7499964 4:-0.4408198 
0.03891149418123287 0.1154865351418639 0.2847494098778131 1:77.291117 2:152.05441 3:1.7394697 4:-0.50145519 
0.006939066135583906 0.04955718119582505 0 1:72.365764 2:149.10124 3:1.8402901 4:0.052132077 
0 0 1 1:120.61182 2:177.81815 3:1.0524319 4:-4.5787735 
0.0001274958286741129 0.009002537021370868 1 1:160.10061 2:190.16464 3:0.62493035 4:-8.5291319 
0.03730132018184357 0.1857382341077178 1 1:150.45653 2:188.65357 3:0.7389439 4:-7.3500053 
0.009679150400887824 0 1 1:105.29365 2:168.44701 3:1.2490874 4:-3.3211746 
0.01004599660975197 0 0 1:87.144367 2:160.06137 3:1.553787 4:-1.4960582 
0.003192127942750175 0.02900440642480445 0 1:73.725154 2:150.53411 3:1.8140612 4:-0.09459231 
0.01043363306902497 0.1035679807656232 0 1:85.251045 2:159.60644 3:1.5815791 4:-1.3362841 
0 0 1 1:121.5205 2:178.38686 3:1.0252459 4:-4.7086591 
0.0982485793116589 0.4463610654336492 1 1:184.93063 2:190.57515 3:0.38735886 4:-12.412167 
0.1291651379159435 0.587804937185159 0.3733582072118863 1:237.06628 2:185.71949 3:-0.064724867 4:-27.156527 
0.005883591615800424 0.06732461303611355 1 1:173.31429 2:189.82991 3:0.47650574 4:-10.583734 
0.04577134584247296 0.2500223857346616 1 1:175.21447 2:191.15056 3:0.46481428 4:-10.683952 
0.09391551209061189 0.4264299086465395 1 1:184.77136 2:188.35643 3:0.36505625 4:-12.78952 
0.1499225090192898 0.6816903193133121 0.4323380275965361 1:264.26215 2:176.65306 3:-0.25589344 4:-44.709794 
0.1048795290528076 0.4755943395399276 1 1:204.83318 2:190.56251 3:0.20383497 4:-16.475653 
0.008408678011096848 0.03828962732838199 0.02451214302817618 1:259.68088 2:182.52338 3:-0.24213397 4:-38.06467 
0 0 1 1:159.90871 2:190.11154 3:0.60249154 4:-8.5399045 
0.1092279318118911 0.4955524460045978 1 1:133.55153 2:181.26724 3:0.88101089 4:-5.8989663 
0 0.005293451563131367 1 1:114.28932 2:175.68075 3:1.1269751 4:-4.0077044 
0.02330722441028118 0.08297343003849743 0 1:112.96306 2:176.91868 3:1.1542396 4:-3.7883622 
0.009724196653317472 0.09699858805359657 1 1:92.694572 2:161.92546 3:1.4284736 4:-2.198346 
0.0337113718360818 0.1358020122569506 0 1:101.67612 2:170.74264 3:1.3301159 4:-2.7721168 
0.01495085374969857 0.03895434052822858 1 1:88.901299 2:161.30052 3:1.5121013 4:-1.7104087 
0.07822281233983175 0.3565297026579002 1 1:129.92927 2:182.34952 3:0.92896666 4:-5.4099861 
0.04469406937424461 0.1952768528254966 1 1:189.13836 2:193.05834 3:0.32975658 4:-12.803922 
0.03934150355425677 0.1769317341248969 1 1:100.86634 2:168.5775 3:1.307044 4:-2.8697436 
0.02760994009088649 0.04480209350886127 0.1490490597592161 1:84.91967 2:158.81294 3:1.5801587 4:-1.3381237 
0.08686388986916886 0.3986837125082242 1 1:166.29216 2:190.96115 3:0.52847061 4:-9.38708 
0.1295913941087651 0.5894205548490364 0.3736373706034457 1:233.74887 2:185.93413 3:-0.048907701 4:-25.927118 
0.1294467636548988 0.5889025375349493 0.3735582409775204 1:260.33822 2:182.18887 3:-0.27634127 4:-38.580957 
0.01990822999792944 0.01605151791625578 1 1:174.28385 2:191.15115 3:0.45412666 4:-10.58441 
0.0472101528899582 0.1865575495054802 1 1:121.36071 2:179.00869 3:1.0275346 4:-4.6469781 
0.04922060256167919 0.20213136417961 1 1:155.46497 2:189.34992 3:0.65729737 4:-8.0094219 
0.02969670536893876 0.1318513357286702 1 1:165.83446 2:189.61395 3:0.5453327 4:-9.4289615 
0.07011276700055023 0.3184247798444696 1 1:188.77203 2:189.52392 3:0.3163726 4:-13.351985 
0 0 1 1:158.67412 2:187.95279 3:0.61367146 4:-8.5973043 
0.04344274955364897 0.2152558676093061 0.3910146076135319 1:113.2372 2:175.68796 3:1.1330002 4:-3.9287176 
0.006502835469232908 0.06530031211300906 0 1:89.81828 2:162.18041 3:1.4863751 4:-1.8307745 
0.07953653089013138 0.3660570583762078 1 1:124.28928 2:180.08417 3:0.99886297 4:-4.888046 
0 0.03947382033109523 1 1:173.75344 2:191.51211 3:0.45892019 4:-10.454989 
0 0.0563330471684127 0 1:92.237475 2:166.61732 3:1.477253 4:-1.8967242 
0.0275753855128383 0.14981404466109 0.5451849334382233 1:87.696823 2:160.70451 3:1.5143599 4:-1.6832971 
0.001024224016191664 0 0 1:91.728082 2:163.08875 3:1.4549191 4:-2.0236619 
0.0686905830399152 0.3347185162866971 1 1:139.30492 2:185.32242 3:0.82523036 4:-6.2898076 
0.06947668139172505 0.3144021832727784 1 1:176.99905 2:194.47937 3:0.43389185 4:-10.572779 
0 0 1 1:152.92401 2:189.24777 3:0.67607625 4:-7.6981841 
0 0 0.3946400304732251 1:153.01574 2:190.4766 3:0.65693013 4:-7.6325432 
0.01581281777417142 0.06140845144136672 0.00336500913402937 1:175.77125 2:196.11549 3:0.45903012 4:-10.15979 
0.1290661051117708 0.5864901630592575 1 1:181.45759 2:191.12376 3:0.37872023 4:-11.762611 
0.05953087929330786 0.2658704479973472 0.1684140074477077 1:233.43374 2:188.79003 3:-0.080501983 4:-24.705786 
0.06793905078026524 0.3107705239564652 1 1:131.7227 2:182.72296 3:0.88624269 4:-5.6423511 
0 0.0330794323806827 0 1:93.254582 2:166.13609 3:1.4262144 4:-2.1413306 
0.02329555324241241 0.04619045375466335 0 1:64.434528 2:143.05318 3:2.0129999 4:0.98753325 
0.027433582046305 0.1285584548169591 0.02285598743862739 1:52.277312 2:132.2276 3:2.3918331 4:3.0885023 
0.03005089727160106 0.1143626286118383 0 1:94.174447 2:165.80608 3:1.4296935 4:-2.1719472 
0.05749580035099241 0.2655452193931073 0.8650896541043014 1:111.73658 2:173.9231 3:1.1363123 4:-3.8843744 
0.01157250753276825 0.07573611063017312 0.08463918819755629 1:53.842841 2:133.37168 3:2.3225438 4:2.6986704 
0 0 0.03259215544748752 1:31.890332 2:105.63236 3:3.3182115 4:9.0464788 
0.0006070527667156132 0 0 1:53.585074 2:134.32364 3:2.3538879 4:2.8659884 
0.02684635786705037 0.1121850774211058 0 1:103.41218 2:172.22112 3:1.2682788 4:-3.0284526 
0.07969744220896482 0.362802068111625 0.2305596255157609 1:265.25744 2:187.37171 3:-0.31223935 4:-37.474653 
0.060765747686378 0.2772860308612763 0.1757477143161561 1:282.33352 2:180.64227 3:-0.45667703 4:-51.595714 
0.02252672827349046 0.1021429611538632 1 1:176.02524 2:195.52948 3:0.44692759 4:-10.280014 
0.06876483774529273 0.3157339744609297 1 1:142.61638 2:187.98423 3:0.7692117 4:-6.554208 
0.01191190090429454 0.04773626846065328 1 1:194.65549 2:197.2874 3:0.26706342 4:-13.118838 
0.08529428309326449 0.3850544003111775 0.2417943108017344 1:239.56436 2:189.24525 3:-0.12979376 4:-26.521486 
0.1099103690188202 0.4990788889893062 1 1:191.59108 2:191.7262 3:0.27773104 4:-13.512671 
0 0 1 1:159.68673 2:190.89298 3:0.59124123 4:-8.469514 
0.07908213496332502 0.3645741276809553 0.2298991474598123 1:269.73448 2:181.43197 3:-0.36900634 4:-43.79679 
0.1058043703433241 0.4808066702616675 0.3046931526988829 1:248.98537 2:189.85949 3:-0.20982519 4:-29.523548 
0.1279401115871631 0.5788704675766956 0.3669581764558088 1:284.44083 2:175.52701 3:-0.51027462 4:-58.142608 
0.1080671546497461 0.493496854150695 0.3129943107543448 1:222.24939 2:193.99285 3:0.033726412 4:-19.787758 
0.05132053298154261 0.1589967540888698 0 1:162.31861 2:193.63281 3:0.56051695 4:-8.5765109 
0.04297062481808483 0.2034146249154237 1 1:173.62356 2:193.06264 3:0.44121474 4:-10.259199 
0.01187671759386955 0.04561191512556613 0 1:209.24665 2:197.63811 3:0.13587686 4:-15.887683 
0.08729544470429933 0.3924433382370341 0.2504072804231495 1:268.7889 2:181.15158 3:-0.3878811 4:-43.517862 
0.06978374452440828 0.3105407458134206 0 1:168.32311 2:195.43252 3:0.52319738 4:-9.1675898 
0.0287916413346455 0.1721531528140027 0.1061789309686467 1:224.1646 2:198.53721 3:0.044891026 4:-19.01212 
0.0150360929454554 0.0669517950148435 0.04065871584438415 1:266.0261 2:185.32491 3:-0.34800263 4:-39.135224 
0.08391232328613699 0.3873931796809275 1 1:194.82933 2:196.14901 3:0.25665316 4:-13.359756 
0.01575339687021412 0.07632178684986857 0 1:142.01694 2:190.99517 3:0.80798532 4:-6.2081118 
0.05438244288984587 0.2115656440553282 1 1:156.30604 2:192.20699 3:0.61583263 4:-7.9219017 
0.02407569270307367 0.06705523079622726 0.04391929207404836 1:228.16881 2:197.10636 3:-0.021987593 4:-20.426901 
0.06404312381502211 0.2872994644473836 0.1820233899290468 1:271.11674 2:184.60273 3:-0.41969156 4:-42.100601 
0 0 0.1221979093093395 1:197.93088 2:197.83001 3:0.232947 4:-13.63254 
0.04381866457285589 0.2077451870690276 0.115821100935385 1:178.89423 2:196.3753 3:0.40132614 4:-10.646355 
0.06813759902910201 0.308501375904795 0.9721813214508666 1:170.23119 2:194.51401 3:0.48228895 4:-9.5728393 
0.132065251932188 0.6009825290176632 0.3814160232001547 1:332.39147 2:154.10456 3:-0.85204546 4:-157.72245 
0.0631659828822408 0.2897762899611133 0.1842204167359089 1:245.73578 2:191.32911 3:-0.19977146 4:-27.709869 
0.07715813101823418 0.3617486278056832 0.2305142010041214 1:254.57179 2:191.59661 3:-0.24261094 4:-30.743078 
0.1063546151270865 0.485222552093025 0.5430426548527413 1:184.23697 2:197.45854 3:0.34568924 4:-11.341932 
0.01610719062486991 0.03925384574874942 0 1:175.79596 2:197.76349 3:0.43270603 4:-10.014185 
0.04663394484142795 0.2340672854625671 0.1468123544396006 1:223.06614 2:196.56491 3:-0.0072306171 4:-19.308446 
0.01932296079900484 0.09702359127003098 0 1:189.15397 2:199.18582 3:0.29273767 4:-11.910717 
0.0416996786458781 0.1265837276120626 0.1446043248896063 1:202.86273 2:199.48719 3:0.18680349 4:-14.259319 
0.00572340329250737 0.02089345830513957 0 1:169.41481 2:196.77273 3:0.49439747 4:-9.2076326 
0.002120263442096996 0.0675102716075611 0 1:185.1383 2:199.7005 3:0.34615996 4:-11.170424 
0.03341604894059638 0.193752799267202 0.1337896333642604 1:220.77854 2:200.08296 3:0.036973793 4:-17.846799 
0.06571122842549824 0.2984241148527482 0.1894128369882558 1:225.44894 2:196.87303 3:-0.021626638 4:-19.788693 
0.1112825587008501 0.5051758576664644 0.3204932246619304 1:293.79176 2:172.70896 3:-0.64385342 4:-68.376389 
0.06318951867235544 0.2848562329289429 0.1809827357009719 1:251.39105 2:193.62676 3:-0.25569211 4:-28.647845 
0 0 0.1462799499481036 1:191.09513 2:199.54549 3:0.28262757 4:-12.16091 
0.03929277531625359 0.1689470563793163 0 1:157.833 2:194.30977 3:0.60128248 4:-7.9259533 
0.06314380546089034 0.2875666709075058 0.172748885356876 1:131.77503 2:188.63226 3:0.89923393 4:-5.2910693 
0.07808318651187507 0.3553302151447728 0.2261455862183747 1:254.78188 2:189.40719 3:-0.31619247 4:-31.905551 
0.1239948422670925 0.5646515951301593 0.358354911716515 1:274.4024 2:181.9185 3:-0.47393972 4:-45.839335 
0.06889378524296838 0.3204737897547738 0.8373899134893706 1:165.78943 2:194.60693 3:0.50728053 4:-8.9588783 
0.006931971266348831 0 0 1:169.93278 2:197.50636 3:0.47876956 4:-9.2192472 
0.1034010266601238 0.4594959225965347 0.2456553840162153 1:110.08581 2:179.68048 3:1.1658257 4:-3.4946994 
0 0 0.03038512711826412 1:112.23867 2:178.60195 3:1.1153945 4:-3.8057409 
0.04576290828780568 0.2106690218856197 0.08236064156095178 1:161.60446 2:197.95265 3:0.59049978 4:-8.0330794 
0.04289290081942516 0.1891095854794248 0.1226291458901091 1:261.9599 2:195.63214 3:-0.32948099 4:-31.481627 
0.132138177621548 0.600910707687183 0.3814620659671948 1:342.95671 2:145.09945 3:-1.0687096 4:-219.89073 
0.09016015900146415 0.4093012615145733 0.2604591866636947 1:330.21582 2:159.5623 3:-0.98070435 4:-135.59773 
0.008388512529862089 0.01426838436525172 0.0137505441123991 1:248.23323 2:193.83766 3:-0.25195831 4:-27.476248 
0.00795745926341763 0.08049808140275692 0.07085917570792445 1:205.92455 2:201.60875 3:0.13770938 4:-14.467376 
0.05000763959482618 0.2464778976700106 0.1570477049484605 1:93.653033 2:168.91314 3:1.4065034 4:-2.163327 
0.1077194400486921 0.4921329921108912 0.2945645966523934 1:44.53611 2:126.12937 3:2.6670141 4:4.6581919 
0.08558659492362175 0.3847953191555729 0.2270108158574751 1:56.191495 2:139.18422 3:2.2453687 4:2.228711 
0 0.02024696925360775 0.06922432480900872 1:188.65329 2:201.649 3:0.30046043 4:-11.481962 
0.1224634365564434 0.5575914741995164 0.3538105285641073 1:360.91444 2:121.44588 3:-1.0956697 4:-518.65471 
0.1499383619339644 0.6815524073725728 0.432325134329278 1:345.87325 2:144.16753 3:-1.1638924 4:-232.10525 
0.1412796176610668 0.640917195639808 0.4065269192492419 1:330.92032 2:155.71848 3:-1.0543698 4:-149.01458 
0.1275797031905303 0.5801082123920239 0.3667177121206191 1:321.98454 2:158.83028 3:-0.9640963 4:-125.85735 
0.04354764910481075 0.1945865458099371 0.1239778112277764 1:314.48134 2:165.73597 3:-0.90529076 4:-99.557869 
0.08905014879495089 0.4002825571956816 0.2537391925984073 1:296.25297 2:175.87452 3:-0.69380245 4:-66.056258 
0.1256206575546584 0.5702950185777281 0.3612426231797584 1:312.36684 2:172.78552 3:-0.81533243 4:-84.145618 
0.07720665372511952 0.3447867766824757 0.222238404032643 1:305.82308 2:176.62136 3:-0.77450627 4:-72.540209 
0.1396408678577254 0.6355012146180848 0.4029964445746001 1:291.05382 2:186.19544 3:-0.60933869 4:-51.497239 
0.03559576368514832 0 0 1:276.28035 2:190.5701 3:-0.49414877 4:-40.352051 
0.01821179411300279 0.05909657447458006 0.02809762672872013 1:279.00739 2:189.15373 3:-0.52507964 4:-42.640221 
0.1003913548807264 0.4547397555686256 0.2908575026025336 1:280.2872 2:191.94689 3:-0.50834543 4:-41.309565 
0.05983922405006903 0.2705963540897077 0.1679004892007323 1:280.08427 2:188.35123 3:-0.53448909 4:-43.770363 
0.02235841506018661 0.0345272340419573 0.0184838345947454 1:277.59488 2:190.69565 3:-0.49504373 4:-40.880295 
0.05489747458961006 0.2492134920249647 0.1539307698936242 1:272.85764 2:191.10502 3:-0.45435523 4:-38.43672 
0.04835963489012718 0.1722175967050459 0.009145508042935655 1:277.30382 2:189.03252 3:-0.50424026 4:-41.893935 
0.0347544417203222 0.1308620074787948 0.03629329846496253 1:267.70089 2:190.37098 3:-0.43273777 4:-36.627153 
0.03036858832343597 0.1611629592017346 0.06090486384544257 1:271.12717 2:188.86836 3:-0.47641868 4:-39.099045 
0.02938515485407689 0.1855631724865564 0.1124732532614353 1:274.6324 2:190.28115 3:-0.47661832 4:-39.770844 
0.01743326765244252 0.08454887995475785 0.06457275860584709 1:280.0508 2:189.18665 3:-0.52978044 4:-43.125995 
0.02765849841639012 0.1256098769865401 0.08586492583746839 1:276.44932 2:191.85815 3:-0.48711548 4:-39.586217 
0 0 0.09117737585183087 1:277.02849 2:188.40823 3:-0.49853305 4:-42.199478 
0.112270152058876 0.508378637436158 0.3195974610580034 1:275.86183 2:192.96838 3:-0.47008132 4:-38.603652 
0 0 0.05185065972217096 1:267.31851 2:190.64417 3:-0.42774723 4:-36.308848 
0.0524566762689512 0.2470934280409751 0.1628487156838665 1:260.50463 2:190.6658 3:-0.37456252 4:-33.469432 
0.01595094707884395 0.02384655528183267 0.0302783388188261 1:265.7763 2:191.06302 3:-0.40864362 4:-35.401755 
0.1200902646945788 0.544749793868382 0.3459385448052151 1:267.12909 2:193.6769 3:-0.40259565 4:-34.48371 
0.007526422414574785 0 0 1:273.52364 2:189.15928 3:-0.49258995 4:-40.016519 
0.03058188471392238 0.127174317334915 0.08452488648046635 1:264.77223 2:189.71403 3:-0.39841141 4:-35.763379 
0.03593288816557491 0.1630415322299949 0.1117732007558856 1:266.18526 2:188.95231 3:-0.42849998 4:-36.837887 
0.04098122700419645 0.2375910343150175 0.1199746464984678 1:266.27598 2:190.69948 3:-0.4051861 4:-35.817291 
0.07938244464845703 0.355467029067477 0.2243002267086733 1:268.76851 2:188.01405 3:-0.45314094 4:-38.567646 
0 0 0.01465078917720038 1:277.26814 2:189.67875 3:-0.50842547 4:-41.432397 
0.03751123612159677 0.1915795358067431 0.1334713856669497 1:268.62349 2:189.77871 3:-0.44316507 4:-37.396124 
0.04219024245972083 0.1345350680534125 0.02811848809021586 1:270.50364 2:190.00934 3:-0.44002731 4:-38.07948 
0.1486109034556867 1 0.2913086173780817 1:86.263894 2:124.043 3:1.733514 4:-2.1813333 
1 1 0 1:74.456418 2:125.85777 3:1.9469653 4:-0.056151711 
0.0502242755012809 0.2227575079419194 0.1363403382793393 1:146.82074 2:192.98929 3:0.73665285 4:-6.6739721 
0.0432709358646451 0.1865136659483997 0.1587724424241463 1:98.990074 2:171.5721 3:1.3418438 4:-2.5787906 
0.1196634658915372 0.5448702062165562 0.3464844064769387 1:276.88 2:178.81448 3:-0.46409141 4:-49.956029 
0.07289115416540112 0.3572858366246116 0.221979728581932 1:247.65529 2:193.67969 3:-0.20327077 4:-27.347845 
0.04612403286497734 0.1849940328395472 0.1056384953577944 1:216.70597 2:199.65022 3:0.071945136 4:-17.03131 
0.04593723565379703 0.2268738674169266 0.1476459583086557 1:230.02314 2:197.38011 3:-0.038218365 4:-20.804044 
0.1389470796646446 0.6326194923608214 0.4010576637854096 1:319.14489 2:159.0887 3:-0.86808744 4:-121.41653 
0.0506570841015082 0.2396278454523324 0.03240248695922027 1:209.24842 2:198.72537 3:0.11994621 4:-15.679113 
0.05954833890987811 0.2696252900281783 0.156104875194809 1:171.85816 2:199.73405 3:0.48343772 4:-9.2288212 
0.04697203392404421 0.2029683568434577 0.15598610907045 1:149.15145 2:193.0256 3:0.69323085 4:-6.9816316 
0.08394340083037201 0.3770320828787215 0.2171418526295011 1:168.19395 2:199.05174 3:0.51290308 4:-8.8164425 
0.04015120250470808 0.1747215274029449 0.1134377591457555 1:268.52088 2:184.78093 3:-0.41092808 4:-40.680279 
0 0 0.03965862274259523 1:182.65227 2:199.87514 3:0.36678699 4:-10.777225 
0 0 0.1003171960123588 1:182.04495 2:199.31725 3:0.37270965 4:-10.749468 
0.05832231342271989 0.2509824592972441 0.1407558558481301 1:202.3604 2:197.00273 3:0.17791091 4:-14.628696 
0 0 0.01036327016092859 1:139.79993 2:189.22389 3:0.78528077 4:-6.1757701 
0.01318227002239415 0.04699834043116424 0.1702767924291259 1:168.59685 2:197.32655 3:0.49606091 4:-9.0511184 
0.04083553589706584 0.2016345052857419 0 1:193.69402 2:199.34715 3:0.2416411 4:-12.654251 
0.0210027415933308 0.08561697147477022 0.05605680349323831 1:246.37773 2:192.70299 3:-0.22070293 4:-27.325697 
0.02216662541980463 0.10358044126352 0.08160514927443735 1:275.40497 2:189.05835 3:-0.45546119 4:-41.000317 
0.002641434477746913 0.005850681504396911 0 1:210.11206 2:201.27921 3:0.11751502 4:-15.324604 
0.008649950331666923 0.02893142905380559 0.02083993879695145 1:226.55946 2:198.12366 3:-0.039998761 4:-19.723866 
0.07960529591948486 0.3640732311035126 0.2305612773878673 1:249.73846 2:192.71505 3:-0.25180477 4:-28.47636 
0.01792395302816652 0.02023929626905889 0.09625419313823259 1:201.5606 2:200.92764 3:0.1773053 4:-13.784967 
0.02003637033515765 0.005769107870635645 0.001182138558076139 1:188.04843 2:201.5036 3:0.31915939 4:-11.385154 
0.006623119361049976 0.04776061530347299 0 1:199.11654 2:202.38593 3:0.21584712 4:-13.085956 
0.07293904167822397 0.2948810395876107 0.1889097846806002 1:235.50273 2:198.01613 3:-0.10968157 4:-22.076288 
0.09843912193109987 0.4492035219259507 0.2857650420888909 1:308.73802 2:170.01439 3:-0.78877002 4:-85.505816 
0.01992294608797171 0.07591487230641011 0.03679559127476704 1:293.30783 2:182.83476 3:-0.62310831 4:-56.129351 
0.1206545857709541 0.5472597856631299 0.3474038483670631 1:291.18568 2:176.49915 3:-0.6320435 4:-61.602282 
0.1046119164822311 0.4758485904117629 0.3014930736282465 1:295.34312 2:177.64481 3:-0.64533408 4:-63.268281 
0.1072176334850393 0.4872480072680732 0.3093011084674961 1:339.96184 2:143.63534 3:-1.0693755 4:-220.97404 
0.03375576433743511 0.1219539142602158 0.1607707655921933 1:207.80641 2:202.25014 3:0.13849217 4:-14.68577 
0.02600865629031475 0.1449824993736715 0.09172611885235503 1:233.93071 2:201.90654 3:-0.092462539 4:-20.507827 
0.06751166912170461 0.2964479201991984 0.1871547429114253 1:263.85214 2:191.96003 3:-0.3643003 4:-34.105006 
0.109429349930898 0.4952904514932757 0.3139748958399624 1:320.20944 2:160.79654 3:-0.93300618 4:-118.14507 
0.06007678592257897 0.2662049501235292 0.1688135699953455 1:240.21264 2:199.66198 3:-0.16758921 4:-22.858618 
0.05673264928206467 0.2559653341794296 0.1758131939942865 1:163.29378 2:198.1975 3:0.54207723 4:-8.2873515 
0.05963932302110462 0.2562671325850703 0 1:166.3568 2:196.76869 3:0.48132919 4:-8.8708522 
0.0375329912166192 0.2159267442826723 0.1310572448727008 1:244.68471 2:197.90322 3:-0.2071653 4:-24.75412 
0.1370917174757598 0.6245407770192123 0.3957626994135305 1:321.34928 2:156.43657 3:-0.96480521 4:-131.93928 
0.01004213682267494 0 0.01257086096805728 1:288.30862 2:183.44583 3:-0.61614313 4:-52.416675 
0.09785550583858987 0.4444351018314575 0.281300369316197 1:310.38485 2:168.18491 3:-0.86247348 4:-90.356029 
0.1449099165719545 0.6594820379891474 0.4183395229133532 1:334.30069 2:153.0824 3:-1.1258338 4:-164.43696 
0.1498483995005195 0.6815904387376978 0.432284144460556 1:343.04837 2:152.02376 3:-1.1463728 4:-185.29717 
0.1278493060567399 0.5791152683855408 0.3673528515898026 1:336.30482 2:155.9945 3:-1.0847629 4:-156.98156 
0.08559698602049759 0.3910940492939214 0.2471987445756179 1:330.99271 2:156.66812 3:-1.0617706 4:-145.88246 
0.04322829826422177 0.1970597178551489 0.1248009273676826 1:324.7977 2:163.47498 3:-1.0028897 4:-117.09918 
0.05767015358250346 0.2547676287444536 0.1624764949859051 1:325.10022 2:163.21485 3:-0.98397014 4:-118.20483 
0.08648469370674317 0.3992532191903836 0.2527572950938404 1:327.52521 2:159.5919 3:-1.046649 4:-131.43007 
0.077167142540088 0.3500382178496845 0.2212989405043876 1:336.49986 2:158.39381 3:-1.1020835 4:-148.80043 
0.04456766529926667 0.2047511498008081 0.1297103324943621 1:329.66589 2:161.34534 3:-1.0215534 4:-129.40254 
0.1372755337907267 0.6252412213733874 0.3967861573632525 1:337.89236 2:159.69384 3:-1.0767197 4:-146.69353 
0.1324471792307838 0.6035221748944571 0.3823192485678368 1:326.36792 2:164.77912 3:-0.96819879 4:-115.86495 
0.1265694674608175 0.5755267070449925 0.3647949604993833 1:322.31919 2:157.77478 3:-0.98376566 4:-129.32697 
0.1038488597747036 0.4685636023245144 0.2985085151097848 1:317.63094 2:160.16663 3:-0.94043688 4:-116.34465 
0.1218428011690682 0.5463401749609975 0.3476467797163306 1:328.14343 2:161.825 3:-1.0148881 4:-125.9553 
0.06192679711106716 0.2590977172170728 0.1672524571102661 1:325.93393 2:161.01949 3:-0.9848322 4:-125.16875 
0.1175676255389675 0.5352060969435117 0.3394885654933638 1:320.89136 2:162.6953 3:-0.90172671 4:-114.16357 
0.000639767269374758 0.005018534965788812 0.004109030847045291 1:322.40932 2:159.10734 3:-0.98309989 4:-125.62587 
0.02096261675839765 0.06079724913682875 0.03906704654977484 1:324.75556 2:162.70603 3:-0.95517507 4:-119.07145 
0.08535187699253538 0.3905469905683188 0.24807425972597 1:327.25594 2:160.35615 3:-1.0067812 4:-128.85933 
0.1185087574513011 0.539759374094868 0.3421764654549198 1:316.89481 2:164.71632 3:-0.90619446 4:-104.53012 
0.1203979248100492 0.5468074969049747 0.3467762023827083 1:333.18866 2:160.09993 3:-1.0419736 4:-138.2277 
0.1081568204594599 0.4943551434027093 0.3135344672061908 1:322.07461 2:160.48702 3:-0.97299235 4:-121.37498 
0.1155703710444275 0.5252234469091035 0.3327500756120042 1:330.80045 2:161.7402 3:-1.0349813 4:-129.85205 
0.02228364887040981 0.1073940937088389 0.06860568499182657 1:335.24042 2:158.02338 3:-1.0746411 4:-148.08449 
0.04266623976134375 0.2086602505988567 0.129933643378704 1:324.64474 2:160.34211 3:-0.97477311 4:-125.27142 
0.09510186371643914 0.4338305269618741 0.2749384153372992 1:324.97662 2:159.73899 3:-0.98759569 4:-127.43256 
0.008540229473314651 0.03984166420036417 0.02418466074567364 1:330.70264 2:159.12714 3:-1.0752335 4:-137.47503 
0.09961230970837387 0.4523813906502784 0.2877793549006489 1:331.18519 2:159.02422 3:-1.0579416 4:-138.54209 
0.01466371064058075 0.06659463063298583 0.04196599762284459 1:326.78392 2:159.65274 3:-1.0116283 4:-130.23627 
0.1056400662388532 0.4816241585415073 0.3057813992609438 1:325.1417 2:162.33271 3:-0.96935672 4:-120.55105 
0.09443873712462941 0.4266107373485489 0.2708207062112389 1:324.01226 2:160.96011 3:-0.96538888 4:-122.70988 
0.01106264345198141 0.06976635046931361 0.04204573460868515 1:326.74064 2:161.36858 3:-0.98572985 4:-125.2888 
0.007399395462502908 0.03490814470540435 0.0220740501760749 1:321.27999 2:162.31428 3:-0.93718783 4:-115.5844 
0.002781177911788779 0.05091047943248625 0.03105136319954352 1:325.05489 2:162.89265 3:-0.98797763 4:-118.9541 
0.01620404494446908 0.06417792611667579 0.04210434633212212 1:323.89419 2:159.69003 3:-1.0251732 4:-126.01435 
0.0602097688487846 0.2730452670801912 0.1734266156968865 1:325.31656 2:158.30577 3:-1.0211596 4:-132.07735 
0.1345456250749879 0.6104835283018746 0.3875885307831841 1:320.25766 2:163.6325 3:-0.97632472 4:-111.01812 
0.04068077846580861 0.153281641904937 1 1:82.907533 2:140.13083 3:1.8356542 4:-0.7796841 
0.1486032848467696 0.9726526580965442 0.3690602060366709 1:38.921888 2:80.068548 3:3.4215058 4:10.662708 
0.1489992673386315 0.6762827577594421 0.428968908347738 1:12.810882 2:31.283138 3:8.1891288 4:89.13238 
0.1356580551969534 0.616255890463248 0.3880691178205247 1:10.938968 2:27.288074 3:10.046251 4:130.21718 
0.09455460158907553 0.4038299149377669 0.2219901378137406 1:9.7794891 2:22.986514 3:11.557773 4:180.11652 
0.119046391990744 0.5410025634258082 0.3255145209564515 1:9.7557717 2:24.142533 3:11.92079 4:183.774 
0.09746188135662325 0.4414617299659966 0.2812168275702797 1:9.7185997 2:23.822737 3:12.408531 4:197.20578 
0.07171240908968858 0.3249328154973609 0.2308080764158262 1:10.10387 2:24.672019 3:12.190105 4:188.23556 
0.05433024375003522 0.2467467938953965 0.03332384569086155 1:10.699243 2:26.60233 3:11.722828 4:168.34458 
0.0787573590860963 0.3566056259134782 0.02776255633919777 1:11.162751 2:27.840131 3:11.409916 4:157.98058 
0.04548591024770651 0.1856208905634173 0.02587377893353281 1:11.031774 2:27.180925 3:11.720098 4:166.01877 
0.08501446404570284 0.3862999948090601 0.2130174084768124 1:11.188036 2:28.794371 3:11.381896 4:153.06524 
0.1237905310210611 0.5615647119133133 0.3155609012243373 1:11.049632 2:28.905757 3:11.24125 4:148.53541 
0.03288070964387003 0.1687589482100287 0.1671758525199523 1:10.708154 2:27.608629 3:11.860359 4:166.21889 
0.1021318410085004 0.4643473802389312 0.1848493061298838 1:11.247953 2:30.718153 3:10.783058 4:134.12938 
0.06521882397023498 0.2949681811839854 0.1002008813643021 1:11.053996 2:30.338381 3:11.159186 4:142.90019 
0.09418608528714914 0.427290087178358 0.106427857132072 1:11.244388 2:30.909611 3:11.048855 4:138.76772 
0.03673169693178852 0.1666622004522433 0 1:11.536539 2:32.268389 3:10.803778 4:131.88951 
0.06146436013939677 0.2873085028262348 0 1:11.569304 2:32.730629 3:10.658424 4:127.71497 
0.09881542864703541 0.4489146147267911 0.1008719450033249 1:12.60678 2:36.613094 3:9.4049161 4:98.183839 
0.06143697336896158 0.2838766843912225 0.06520812807547122 1:12.203039 2:35.940087 3:9.7513268 4:105.28323 
0.06925469309805304 0.3108500980750121 0 1:12.093912 2:35.310828 3:9.8597729 4:107.8123 
0.08833999203049779 0.4000487803613302 0.1527887796124501 1:13.466595 2:40.28914 3:8.7164044 4:82.839717 
0.07402240212840711 0.3337175694370412 0.07311067138953203 1:12.687294 2:37.71677 3:9.3481239 4:95.760846 
0.04209469730290386 0.1975199146180985 0 1:14.634919 2:44.996613 3:7.9249598 4:67.00247 
0.06307233542357892 0.281082348673073 0 1:13.987828 2:44.347837 3:8.1383612 4:70.289424 
0.03569098967496938 0.1609212083501602 0.3361909168413889 1:14.974626 2:49.231488 3:7.3393917 4:56.360056 
0.07262197514335324 0.3253736538644834 0.2977874687920753 1:13.90814 2:48.356616 3:7.4371499 4:58.012195 
0.0189814851085483 0.08163895141365611 0.7080075385251718 1:15.177724 2:53.472564 3:6.9028782 4:49.164791 
0 0 1 1:18.296775 2:62.445742 3:5.8466209 4:34.419831 
0 0.06118556050732064 0 1:18.736396 2:65.431499 3:5.5422421 4:30.624625 
0.04464868390729011 0.1970490273047844 0 1:19.818538 2:67.768141 3:5.2526987 4:27.302634 
0.005612816877385038 0.03009454504704749 0 1:19.591393 2:70.874293 3:5.1181476 4:25.752867 
0.03392353839431894 0.16426116578512 0 1:19.409696 2:71.500612 3:5.088749 4:25.402417 
0 0 0.3843892398181633 1:32.884256 2:95.635426 3:3.6056816 4:11.28901 
0 0 1 1:32.582273 2:95.480011 3:3.6259922 4:11.452627 
0.02766211829447992 0.1314378086459978 0.07758431275691803 1:18.714724 2:73.140012 3:4.9494 4:23.861808 
0.00262867247093471 0 0 1:37.153664 2:100.49757 3:3.2790956 4:8.8444313 
0.07158549106980033 0.3518984818835863 0 1:28.845055 2:88.728836 3:3.8203369 4:13.215209 
0.03572876201489224 0.2034887784268156 0 1:32.506259 2:94.64578 3:3.5329642 4:10.864418 
0.03827523654029404 0.1906420987566188 0 1:31.208412 2:97.322236 3:3.6500741 4:11.604094 
0.01975428429972563 0.08795396381805923 0 1:28.959273 2:91.754132 3:3.7754513 4:12.710168 
0.06212958755117218 0.126896813857847 0 1:40.467869 2:105.26449 3:3.0548289 4:7.2584963 
0 0 0.3653505616302862 1:35.38675 2:101.04465 3:3.3590755 4:9.4620936 
0.01924659121634083 0.07423053181110512 0 1:28.720637 2:90.809936 3:3.789664 4:12.920071 
0 0 0.1078416443721193 1:24.202545 2:85.632695 3:4.1499774 4:15.992123 
0 0 1 1:43.868212 2:112.26917 3:2.88104 4:6.0616516 
0 0.1853695053447802 0 1:45.564011 2:113.31226 3:2.7807815 4:5.4328967 
0 0 1 1:47.256884 2:116.26707 3:2.7164364 4:4.9383511 
0 0 1 1:43.329659 2:111.91597 3:2.8872176 4:6.1470916 
0.1255082045984184 0 0 1:33.335949 2:99.674002 3:3.3731969 4:9.5996301 
0 0.008151404408864336 0 1:52.981786 2:122.23638 3:2.4972898 4:3.6040682 
0 0 1 1:51.134337 2:121.76988 3:2.556781 4:3.9748234 
0 0 1 1:44.84393 2:114.50545 3:2.8016049 4:5.5621967 
0 0 0.4378787392566056 1:42.939783 2:113.02385 3:2.8809379 4:6.0923336 
0 0 0.3666039042134008 1:44.580209 2:115.24639 3:2.779658 4:5.4483851 
0 0 1 1:48.628165 2:118.87465 3:2.6273651 4:4.4370281 
0 0.07452478488437551 0 1:55.022161 2:125.20076 3:2.3967894 4:3.0469685 
0 0 0.6005085236765436 1:57.431348 2:127.85412 3:2.3404482 4:2.6665717 
0.1853814672238889 0.0925534283679019 1 1:51.94084 2:117.06015 3:2.5353141 4:3.8769978 
0.1492616184524496 1 0.1728956185852072 1:90.744393 2:139.52615 3:1.6531117 4:-2.1064229 
0.01068332481973638 0.001412519539001883 1 1:106.15432 2:161.41992 3:1.2954902 4:-3.5835921 
0.007747545835106284 0 0 1:108.14906 2:163.62354 3:1.2526617 4:-3.767534 
0 0.01668480105640323 0 1:101.49547 2:161.71806 3:1.3659991 4:-3.0014708 
0.01755495018964462 0.1092249548256811 0 1:123.78078 2:171.86498 3:1.0615361 4:-5.1887067 
0.0050298983596344 0.08774593353602385 0 1:90.074851 2:154.97896 3:1.5618413 4:-1.7939161 
0.0009075792827988287 0.04241595406388996 0 1:79.998357 2:148.93951 3:1.744276 4:-0.68467735 
0.01822001217717317 0.05921579540830314 0 1:11.718709 2:61.593336 3:6.0597732 4:36.964225 
0.05749550242362374 0.2625374955063863 0.1677840151794817 1:6.2822652 2:44.941082 3:8.5174477 4:74.996697 
0.06531416928769358 0.2922103873402031 0.18637114750931 1:8.6476351 2:53.294534 3:7.1726397 4:52.375879 
0.00846855873879182 0 0.1053913466464092 1:9.887839 2:57.185513 3:6.6639612 4:44.960633 
0.02158534306118367 0.07319135328639242 0 1:10.589465 2:59.006257 3:6.4398931 4:41.8485 
0 0 0.7670101455607969 1:50.796199 2:124.22813 3:2.5122507 4:3.8011993 
0 0 0.2967996079383196 1:64.417017 2:136.41468 3:2.0875647 4:1.2840111 
0 0 1 1:63.256073 2:136.51705 3:2.1244182 4:1.5025803 
0.0587312958424438 0.2651878560302335 0.1691557527677104 1:4.0343205 2:35.077958 3:10.981884 4:126.39573 
0.058318599538765 0.2610021856064705 0.1658136111618941 1:3.6726044 2:34.391998 3:11.648093 4:141.07553 
0.1324124737108046 0.6036158956077727 0.3827643791056856 1:3.078655 2:30.710285 3:12.820211 4:171.79298 
0.1443432817278001 0.6552977604421953 0.4154538655673771 1:3.3839048 2:32.733436 3:12.200122 4:155.14788 
0.06733386230489413 0.3190143733141582 0.2019508793122488 1:3.5255407 2:33.311128 3:11.908703 4:147.68477 
0.0632200675451829 0.2884707605361696 0.1822957617397999 1:4.0516559 2:36.085038 3:11.044888 4:126.73018 
0 0.09742151111922076 1 1:107.35599 2:160.14111 3:1.2638178 4:-3.8422012 
0 0 1 1:31.461198 2:99.66342 3:3.4068204 4:9.9047683 
0 0.004441697600956265 1 1:112.02654 2:162.67137 3:1.2058852 4:-4.2440062 
0.01062137486897468 0.0008783408742374865 1 1:67.707467 2:140.32086 3:2.0067512 4:0.8590775 
0 0.04003697527736859 1 1:67.163127 2:141.17452 3:2.0162299 4:0.9139402 
0.01461729501046543 0.07872239749422716 1 1:61.127666 2:136.22111 3:2.1808292 4:1.8274117 
0 0 1 1:64.807135 2:139.54429 3:2.0789688 4:1.2755273 
0 0 1 1:64.808492 2:138.29085 3:2.0720937 4:1.2317796 
0.009852802628266896 0.002744562083772138 0 1:78.889793 2:148.55646 3:1.7628221 4:-0.54016597 
0.007769626050287453 0 0 1:73.444552 2:145.27359 3:1.8655413 4:0.058568853 
0.002556370453286875 0.0181955096431037 0 1:38.488373 2:112.57109 3:3.0215817 4:7.0591321 
0.01333870616101053 0 0 1:30.489103 2:101.01362 3:3.4880288 4:10.443751 
0.03910578320220966 0.1951166250245171 0 1:33.345158 2:105.63121 3:3.3252551 4:9.2163235 
0.007797185016547723 0.0922202800547999 0 1:127.25541 2:172.40863 3:0.98793545 4:-5.6467321 
0.05536791200035449 0.2375838438783996 0.0325638542436756 1:160.2231 2:179.96888 3:0.65531134 4:-9.6573438 
0.02867660804449023 0.1156561709209017 0.1264000287531784 1:147.81055 2:178.24501 3:0.80887538 4:-7.8550754 
0.01649584785010938 0.05058897219099163 0 1:122.36156 2:171.78761 3:1.0796466 4:-4.9935752 
0 0 1 1:71.242023 2:145.15411 3:1.8942004 4:0.25321798 
0 0 1 1:64.481746 2:137.90538 3:2.0710724 4:1.2684566 
0 0 1 1:79.537297 2:150.23158 3:1.7180213 4:-0.73048333 
0 0 1 1:61.948649 2:136.29063 3:2.1509621 4:1.6969381 
0.007624713113615234 0 0 1:47.462655 2:122.81604 3:2.6300788 4:4.53294 
0.04006857878073397 0.1652003808372015 1 1:87.94683 2:156.28716 3:1.5961105 4:-1.4998528 
0.01245370883009489 0 0 1:70.883276 2:143.9302 3:1.8966968 4:0.29490999 
0 0 1 1:84.737904 2:153.73993 3:1.6390215 4:-1.2165693 
0.03728723795612893 0.002473351427132164 0 1:97.227515 2:160.4639 3:1.4016088 4:-2.6058575 
0 0 1 1:59.28529 2:133.49274 3:2.2156041 4:2.0940488 
0 0.01422222119825684 0 1:132.79424 2:174.08638 3:0.94761673 4:-6.1762252 
0 0 1 1:77.835056 2:148.67485 3:1.760434 4:-0.50032376 
0.04003436042250143 0.1935425962644304 0.3607205106361818 1:28.737765 2:98.836383 3:3.6320388 4:11.557884 
0.01018195668284747 0.005194231343371917 0.2702282713817057 1:37.672982 2:109.20438 3:2.9855317 4:6.9005349 
0.01521873515884936 0.01203141278147376 0 1:63.924284 2:138.25091 3:2.0671189 4:1.2345162 
0 0.02728596389271851 0 1:117.93884 2:170.12478 3:1.11847 4:-4.5866633 
0 0 0.5360894626384188 1:63.631578 2:137.51852 3:2.080509 4:1.3188703 
0.0488077765118231 0.03318005025915754 0 1:116.84515 2:167.6404 3:1.0984025 4:-4.6840032 
0.008244541150042943 0 0 1:69.827841 2:142.55348 3:1.9135853 4:0.3862861 
0.01700571182043069 0.03991775782961511 0 1:48.164782 2:122.05 3:2.5361223 4:3.9868569 
0.04651791835686313 0.1480063296577897 0 1:17.411226 2:74.965218 3:4.816593 4:22.611284 
0.004668102917893527 0.024321133528937 1 1:96.044171 2:161.4415 3:1.4502472 4:-2.3295241 
1 0.330425207169548 1 1:56.23367 2:115.52374 3:2.3953771 4:3.0812784 
0.07512616181625001 0.2175244229020503 1 1:101.49269 2:153.37723 3:1.4587734 4:-3.0700185 
0 0 0.08494928614507873 1:165.19985 2:197.28736 3:0.53411167 4:-8.6034487 
0.0614330980765464 0.2823479619180781 0.1793711438399969 1:309.75153 2:168.75002 3:-0.78865202 4:-88.776771 
0.09390064923969653 0.4276620982267469 0.2716048369423805 1:275.75308 2:183.70251 3:-0.4595405 4:-45.136571 
0.02588929268829209 0.08162876905515752 0 1:163.86604 2:195.41603 3:0.53254971 4:-8.6165686 
0.0004628179915057411 0 0.0260307256716901 1:143.7992 2:192.59264 3:0.75369573 4:-6.3794967 
0.04322883373580327 0.2052021726116764 0.150893796821563 1:166.32236 2:199.31496 3:0.52387883 4:-8.5567016 
0.04929459442025427 0.2468692095882032 0 1:199.75303 2:199.87725 3:0.18979555 4:-13.630424 
0.08278616937642418 0.3919438858705314 0.2462258761097612 1:244.33108 2:193.4432 3:-0.20987605 4:-26.357614 
0.0740665310878688 0.3415207276086665 0.2168280168477986 1:297.29606 2:176.75413 3:-0.65672796 4:-65.809968 
0.1281424200125723 0.5791381773610665 0.3679646808346759 1:311.38464 2:165.2819 3:-0.8546229 4:-97.177383 
0.0737406802702891 0.3434935782814802 0.2155478649356085 1:268.89801 2:184.48081 3:-0.46038636 4:-41.0394 
0.07528869611583125 0.3481718933404534 0.220050610035859 1:249.3527 2:197.07553 3:-0.24037772 4:-26.51327 
0.01924007823118489 0.09734952540779972 0.03900532242939207 1:233.85328 2:200.38019 3:-0.09635291 4:-20.920465 
0 0 0.003797685117932261 1:270.69962 2:188.58684 3:-0.45600972 4:-39.087622 
0.108693609553308 0.4929889249052055 0.3128041053984866 1:301.60362 2:175.63881 3:-0.73216339 4:-70.541758 
0.149929507706076 0.6818781048821587 0.4323849915706527 1:351.01295 2:141.14026 3:-1.1719036 4:-265.30736 
0.09167698699079119 0.4190376255382152 0.2654342903723124 1:308.80258 2:174.63684 3:-0.79451999 4:-77.968853 
0.009412103901001157 0.2440403772277292 0.1338057844424569 1:276.66443 2:190.58102 3:-0.48403553 4:-40.521611 
0.007739219269293027 0 0 1:238.90766 2:198.45146 3:-0.16033536 4:-22.888489 
0.09416812146534297 0.4305638582231233 0.2746943724941788 1:255.06681 2:197.06015 3:-0.29047068 4:-28.385217 
0.06168943490715503 0.292311781373601 0.1838750139390058 1:278.82793 2:192.00911 3:-0.49396477 4:-40.567492 
0.04097843603874213 0.1947979767753493 0.1251867012389148 1:278.86152 2:186.2612 3:-0.51642783 4:-44.72958 
0.02123512888682812 0.06774284916053182 0.009934865365554262 1:293.38083 2:181.40269 3:-0.65522006 4:-57.629342 
0.05820157374966616 0.2678259981280559 0.1686212136604262 1:286.97759 2:181.26338 3:-0.62028899 4:-53.686229 
0.1141034168205777 0.5273303886400623 0.3319040691606587 1:287.43862 2:184.35034 3:-0.60096891 4:-51.057425 
0.03366131579819723 0.1766912164006921 0.1317182089968988 1:293.86684 2:182.36964 3:-0.65339882 4:-56.922312 
0.08788278951738855 0.3998861665393774 0.2542134750425298 1:295.90566 2:183.21431 3:-0.66564243 4:-57.367068 
0.1327353934503213 0.6031561253390884 0.3830227235361872 1:302.4007 2:180.57507 3:-0.7455684 4:-64.77086 
0.06680053265782099 0.3102850353721583 0.1963413829665769 1:297.11727 2:180.5 3:-0.69471355 4:-61.119935 
0.03395376198272291 0.1552507916022244 0.09859048594181077 1:285.73657 2:180.55259 3:-0.60224553 4:-53.605323 
0.007808490059321318 0.03028098960856046 0.01998494715571133 1:286.16588 2:181.92918 3:-0.61685507 4:-52.555761 
0.06358190279839654 0.2797936841041934 0.1751602032658203 1:293.58869 2:179.55157 3:-0.68088446 4:-59.764755 
0.07318801393932833 0.3308106870763107 0.2096153168636935 1:300.06257 2:181.67131 3:-0.70408101 4:-61.833055 
0.01550004447932869 0.1390351653733239 0.06844289217962425 1:288.56858 2:183.08726 3:-0.59048214 4:-52.912819 
0.05642162239153094 0.2600506127382231 0.1649762249205699 1:285.6512 2:182.49567 3:-0.57584365 4:-51.703376 
0.08716616447074207 0.3963094317157257 0.2507469024429964 1:291.27773 2:179.46382 3:-0.65252539 4:-58.314442 
0.00741247603002354 0.02513861324019669 0.01140164111993194 1:295.01945 2:182.31551 3:-0.65333589 4:-57.735866 
0.02869414668556775 0.1485794486554385 0.08712387932979015 1:289.30808 2:181.8331 3:-0.61216882 4:-54.573694 
0.03155991842564655 0.099996803060328 0.07791979969394733 1:288.88447 2:182.44696 3:-0.61328701 4:-53.704412 
0.01703981125022645 0.09563624750551274 0.06078402570031811 1:294.63397 2:179.47614 3:-0.68649705 4:-60.573447 
0.02191299455630728 0.05635323096544293 0.03724792965875812 1:286.72664 2:177.27108 3:-0.64094224 4:-57.617529 
0.04885917583306363 0.2230569649482496 0.1412852763542595 1:284.76113 2:181.02807 3:-0.58246478 4:-52.561768 
0.02727973910452842 0.122279054243816 0.07807683527045507 1:294.71024 2:178.49002 3:-0.70268749 4:-61.738606 
0.02558838472618155 0.09675502565294773 0.06146996034190699 1:295.64722 2:180.23366 3:-0.69151006 4:-60.40985 
0.09743075016264004 0.4421958563692031 0.2803573335467314 1:297.55279 2:182.72119 3:-0.68326962 4:-58.964932 
0.07227450270468222 0.3327206308979737 0.2140682910899081 1:292.49956 2:183.80793 3:-0.64542183 4:-54.613678 
0.1020338573222804 0.462199388750605 0.2931726805643297 1:286.12173 2:179.12212 3:-0.62718236 4:-55.283771 
0.08915348773168286 0.4017512780669301 0.2551264186726617 1:297.9835 2:179.30443 3:-0.69860232 4:-63.111333 
0.04701370239807193 0.2154050680832145 0.1351593919830823 1:290.75172 2:183.4491 3:-0.64058951 4:-53.888225 
0.04419218425717483 0.2181340807879937 0.1421533749732815 1:293.94645 2:180.85599 3:-0.66292508 4:-58.58622 
0.07482012244348069 0.3388962860550269 0.2154173168551815 1:282.75251 2:180.17894 3:-0.59145902 4:-52.141833 
0.05001292996540057 0.2299457961001161 0.1462429544245602 1:299.90391 2:180.2002 3:-0.72224791 4:-63.427497 
0.03083746295004154 0.1464517615435834 0.09291364123859384 1:290.43617 2:179.9145 3:-0.66126561 4:-57.253415 
0.1094659366187643 0.4980067637853691 0.3155547235298513 1:299.94853 2:178.63516 3:-0.72465273 4:-65.34237 
0.7424405280205332 1 0.2806632722101289 1:67.739898 2:96.994826 3:2.2812884 4:1.11141 
0.1499294345212204 0.6816673219901124 0.4325046717574117 1:59.064903 2:68.116694 3:2.0916191 4:-2.1508705 
0.1497602048826877 0.6816701380373036 0.4323656165120384 1:43.012589 2:50.00316 3:2.5723079 4:2.9947448 
0.1508701295698017 0.6807196910829791 0.4315770320175953 1:34.302474 2:41.513424 3:3.5369426 4:16.717077 
0.1494507427925775 0.6808615857330933 0.4318963358788886 1:29.754016 2:39.546468 3:4.3399366 4:28.745312 
0.1460606815277832 0.6976262835267091 0.4190067034470619 1:28.09201 2:37.488334 3:5.2177958 4:41.616195 
0.1423007907247279 0.647780800614508 0.4108116603296485 1:24.866716 2:35.480243 3:5.9300347 4:53.908244 
0.130937744281566 0.5931339258632047 0.3760894679958086 1:24.245988 2:35.625936 3:6.3956889 4:59.545564 
0.1284768633930967 0.5851955140115095 0.3771007708371682 1:21.47252 2:34.150627 3:7.1344254 4:72.865093 
0.05592157778181676 0.2657999801047011 0.1708897365243984 1:20.508428 2:33.756207 3:7.4783024 4:79.422355 
0.0334303695142647 0.1485978354294094 0 1:14.884101 2:30.634055 3:9.2200548 4:115.60697 
0.06492775948148788 0.2963797298006826 0.1881164458577826 1:14.049621 2:30.310312 3:9.4385195 4:119.46202 
0.05062751111516261 0.2351263860493122 0.05933462384763098 1:13.83959 2:29.72468 3:9.6429802 4:124.78904 
0 0.003568920877271709 0 1:14.832452 2:30.510086 3:9.5520394 4:121.02085 
0.006604780606072074 0.02975104144042613 1 1:17.638447 2:33.689467 3:9.270667 4:104.47324 
0.06867114149801437 0.3131859760045422 1 1:18.100293 2:35.631382 3:9.040973 4:97.06426 
0.01377105818058462 0.0699118417563073 1 1:18.218831 2:37.318414 3:8.9101881 4:92.342228 
0 0 1 1:18.285535 2:36.394313 3:8.9033151 4:92.891636 
0 0 1 1:18.637875 2:38.721727 3:8.7323099 4:87.181169 
0.02616011305128645 0.1159764095754656 0.9921183717408515 1:18.202124 2:38.287672 3:8.7821071 4:87.89166 
0.0646193665570956 0.3263494631280036 0.2446241726031096 1:17.854738 2:40.029399 3:8.4712888 4:80.427829 
0 0 0.1060346687424023 1:16.480651 2:41.327655 3:8.6169333 4:82.032669 
0 0 0.001451739881417459 1:15.361728 2:40.000277 3:8.9257399 4:88.614975 
0.02630284160333253 0.120977646680041 0.7960907257597791 1:16.186865 2:40.807832 3:8.7067957 4:83.678843 
0.03850389892907476 0.1335883648704732 1 1:17.528368 2:41.960632 3:8.390614 4:77.059144 
0 0 0.4708431309884591 1:16.60643 2:41.284028 3:8.5539812 4:80.103704 
0.01581421824238247 0.08772941324456947 0 1:14.585501 2:39.630422 3:8.9583599 4:88.545094 
0.052069914899977 0.2380043949775197 0.09444888021430735 1:11.754964 2:37.641912 3:9.5462255 4:100.45087 
0.009460712650537583 0.05550602266065045 0.1161730479533024 1:10.460654 2:35.787772 3:10.233898 4:115.9185 
0 0 0.04886741768670903 1:11.101542 2:35.896342 3:9.8561329 4:108.41734 
0.08801224831333698 0.3994370633645737 0.02772151971410698 1:13.237247 2:39.472812 3:8.817952 4:85.424166 
0 0 0.02595449449835565 1:14.670594 2:42.459324 3:8.6160157 4:79.879851 
0.05201756617242212 0.2124343777075519 1 1:17.745333 2:47.852278 3:7.6093727 4:60.933659 
0.05174604803687297 0.2573546729711088 1 1:16.902079 2:46.736454 3:7.8985164 4:65.648935 
0 0 0.3231547477454306 1:15.399681 2:45.401937 3:8.1260247 4:69.929244 
0.06105678792883436 0.2801121205980972 0 1:11.923504 2:40.56727 3:8.9927601 4:87.334066 
0.08528896928314625 0.3907811455155688 0.2497614866389097 1:8.0746924 2:34.465813 3:10.545743 4:121.07858 
0.06273008797582574 0.2865490556892493 0.1693422493538648 1:7.6778505 2:34.195448 3:10.741739 4:125.73469 
0.07705928019662422 0.3460847058652352 0.2247647810154704 1:7.8125924 2:35.117134 3:10.458816 4:118.44305 
0.006071090346976544 0.0141772656470646 0 1:7.9743584 2:35.610777 3:10.602515 4:121.39613 
0.004933398111808499 0.03993691875180817 0.01276018302826147 1:9.3917318 2:38.048213 3:9.7220823 4:102.49752 
0.02704223828957047 0.1049060436796545 0.001512496471231037 1:12.737949 2:45.927764 3:8.2191425 4:71.250912 
0 0 1 1:17.768926 2:54.692017 3:6.8248782 4:47.6505 
0 0 0.2045474587918533 1:14.245569 2:50.861372 3:7.4237607 4:57.067541 
0 0 1 1:20.562524 2:61.377886 3:5.946648 4:35.434309 
0 0 1 1:18.709087 2:59.046146 3:6.2916425 4:40.262144 
0 0 1 1:19.420846 2:61.222928 3:6.0516048 4:37.069346 
0 0 1 1:20.793424 2:62.555974 3:5.8057037 4:33.909026 
0 0.03508331218149504 1 1:23.398154 2:67.713151 3:5.4112476 4:28.666814 
0 0 1 1:21.645343 2:65.758645 3:5.501588 4:29.969674 
0.006039628250003379 0.04633591587074381 0.05366083529054615 1:8.3393579 2:42.89639 3:8.8510862 4:82.279766 
0.01415245172514855 0.06863703458246954 0.06055396434297324 1:13.756018 2:55.899304 3:6.6891356 4:45.954159 
0 0 1 1:25.931889 2:80.688722 3:4.4900237 4:19.02774 
0.04519484071617069 0.3573006530308758 1 1:31.450775 2:88.419832 3:4.008537 4:14.497289 
0 0 1 1:33.197685 2:91.490378 3:3.7732161 4:12.532763 
0 0 0.2354316750955932 1:30.316769 2:87.560925 3:3.9517753 4:14.145701 
0.04186476066304746 0.1981138802161793 0.09872293759786513 1:6.4079765 2:41.28298 3:9.2785548 4:89.991608 
0.00308009877226893 0 1 1:36.349677 2:100.52185 3:3.4219033 4:9.7643346 
0 0 1 1:35.225601 2:99.696498 3:3.4151241 4:9.8048457 
0 0 0.7488763892447674 1:38.873332 2:104.42008 3:3.1809111 4:8.0474251 
0 0 1 1:48.389085 2:114.67743 3:2.7626283 4:5.1850745 
0 0 1 1:46.065143 2:113.80815 3:2.831446 4:5.648675 
0 0 0.1347384280939654 1:41.564231 2:110.48758 3:2.9691012 4:6.6100767 
0 0 1 1:41.831293 2:110.222 3:2.9740375 4:6.7117046 
0 0 1 1:41.736103 2:111.25106 3:2.956805 4:6.5669685 
0 0 0.6060188123630768 1:39.589601 2:108.73613 3:3.0692118 4:7.3284902 
0.01829529612578791 0.101625608883464 0 1:29.456577 2:95.905169 3:3.7028179 4:12.15741 
0.01826713046312893 0.1674711714487974 0.5333189955287183 1:32.063853 2:99.8253 3:3.5042509 4:10.586939 
0.07151022490737551 0.1204761691977658 0.130034841286942 1:57.452687 2:125.80595 3:2.3286944 4:2.5464755 
0.08078573254600561 0.1872705804369384 0 1:33.718408 2:102.32929 3:3.3910118 4:9.7005902 
0 0 1 1:48.379968 2:119.37821 3:2.6419677 4:4.5351708 
0 0 1 1:45.931323 2:115.94972 3:2.761566 4:5.2949885 
0 0 1 1:49.71752 2:120.3785 3:2.6085474 4:4.3168939 
0 0 1 1:45.721271 2:116.87403 3:2.752488 4:5.2242735 
0 0 1 1:49.093934 2:120.23041 3:2.6108262 4:4.3203472 
0.008894884554128351 0.006871088444313521 1 1:45.994008 2:118.14171 3:2.7491295 4:5.2279219 
0.007396906093023073 0 0 1:35.973247 2:106.39599 3:3.2436308 4:8.5915437 
0 0 1 1:23.565018 2:86.008666 3:4.1432425 4:15.926498 
0 0 1 1:55.920141 2:128.18697 3:2.3801923 4:2.9083907 
0.03102425236083352 0.1045556325647382 0 1:66.682127 2:136.76712 3:2.0891862 4:1.1740826 
0 0 0.96073768625666 1:50.116903 2:120.95508 3:2.5600032 4:4.0632989 
0 0 1 1:52.318571 2:124.13823 3:2.4921267 4:3.6287778 
0 0 1 1:47.577394 2:118.52627 3:2.6403954 4:4.5451678 
0 0 1 1:59.053483 2:130.1521 3:2.2430632 4:2.1456827 
0 0 0.9575736149210362 1:64.43958 2:135.63088 3:2.1217858 4:1.4286642 
0.01767660935879689 0.1084456966599228 0 1:81.580328 2:149.42227 3:1.7263839 4:-0.85298247 
0.07859444743430122 0.138435538747248 0 1:34.25268 2:95.163962 3:3.352409 4:9.8829949 
0 0 1 1:140.00455 2:172.87238 3:0.91585134 4:-7.228913 
0.02714129833156087 0.04754140866686789 0 1:73.054209 2:147.66485 3:1.8166575 4:-0.081132072 
0.02367781810443013 0.01315790340868499 0 1:140.05219 2:175.43463 3:0.82380504 4:-7.1302856 
0.1501444474425694 1 0.4327155392830763 1:77.474466 2:74.062987 3:2.0598093 4:-7.1939021 
0.1501001573111891 0.6816887508465843 0.4323745441165036 1:37.275954 2:49.422693 3:2.4805926 4:5.2806714 
0.1495160511426045 0.6812541242436285 0.4321317682882461 1:24.634592 2:40.00513 3:3.8371241 4:22.826579 
0.1366636108001827 0.621692737728393 0.3942178407677313 1:20.912664 2:36.381264 3:4.6192412 4:34.913057 
0.1183681519784015 0.5366002433666293 0.3403962740002052 1:18.312318 2:33.144596 3:5.3714363 4:48.081722 
0.03667195965950045 0.1704148031964444 0.1072841264549982 1:16.549041 2:31.095566 3:6.2957243 4:65.799619 
0.1481361613500998 0.6727607341283119 0.4267899945448254 1:15.357981 2:29.187053 3:6.6540704 4:75.739728 
0.1422390219919233 0.6468349254687479 0.4103806144791595 1:13.805371 2:27.910645 3:7.5788269 4:93.965434 
0.1024139435325342 0.4639343323808724 0.2978579004645058 1:12.753264 2:27.227406 3:8.4995097 4:111.91452 
0.08776115622692064 0.3982682765854834 0.264040080426506 1:12.542178 2:26.748938 3:8.867399 4:120.81619 
0.01637495598790311 0.07560151037421906 0.03685762566371581 1:13.392239 2:27.457043 3:8.9135346 4:121.25255 
0.1010752912004461 0.4583724590333929 0.3226962647888186 1:14.605015 2:29.988541 3:8.4944237 4:105.3323 
0.09161027927487064 0.4134513042835561 0.32187494436398 1:14.700596 2:29.049689 3:8.5310853 4:108.47259 
0.02631979253974878 0.1127940112078232 0.1190734115333318 1:14.311497 2:29.088702 3:8.8673289 4:114.88987 
0.04997755188417535 0.2302320239544439 0.05703583244205745 1:15.630044 2:30.742772 3:8.536485 4:104.25341 
0.08105290376879726 0.3695063385014684 0.2372801372199667 1:16.873144 2:32.462872 3:8.0492366 4:90.572041 
0.1046171059524997 0.4762224115202817 0.295362700735835 1:17.927371 2:33.889221 3:8.0734351 4:88.566365 
0.1341849718049035 0.612607594677812 0.3671473137209719 1:18.793608 2:34.9847 3:7.9226388 4:84.915409 
0.0874682012426003 0.3310206385815567 0.1253039379780085 1:20.826675 2:36.014792 3:7.7167305 4:80.276561 
0.09057056507172156 0.3736415158047363 0.8223783460334118 1:22.454695 2:38.338018 3:7.4291623 4:72.151494 
0.09561129949551056 0.3445302910594072 0.1803709227740302 1:23.608916 2:38.934408 3:7.4623845 4:71.526377 
0.1229548724667324 0 0.7234850189901514 1:24.650067 2:40.99032 3:7.2730753 4:65.013617 
0.1285010896361916 0.4882380473690493 0.6793078565952193 1:26.754783 2:41.635807 3:7.273594 4:63.384735 
0.1241415736156784 0.5378014423967113 0.4837143644681457 1:29.229124 2:43.318077 3:7.2357722 4:59.941165 
0.124846917304246 0.4591952175942394 0.2805470838677081 1:30.11889 2:43.270843 3:7.1698146 4:57.563423 
0.1082207902494419 0.4751726517306976 0.2173126332164484 1:30.527016 2:47.78649 3:6.8710599 4:51.172956 
0.09787283418354031 0.4587437064401403 1 1:29.740191 2:49.286719 3:6.7192348 4:49.448162 
0.06952571429113924 0.2302572058052547 0.129721817598834 1:28.420938 2:47.828899 3:6.7155165 4:50.097271 
0.1370176452363452 0.4962620202019773 1 1:26.802566 2:46.593819 3:6.8170446 4:52.456541 
0.1217662515833662 0.3190908384713312 1 1:26.052635 2:49.533043 3:6.6576961 4:48.578881 
0.1003296899757237 0 1 1:26.480952 2:53.295824 3:6.3605566 4:42.987041 
0.144850447891599 0.1759549134197969 1 1:25.403554 2:54.781274 3:6.2370665 4:40.979356 
0.08689410167752125 0.3057009498204556 1 1:23.921042 2:54.686941 3:6.392843 4:42.922251 
0.1109993656708365 0.05672110977227539 1 1:24.6288 2:58.13834 3:5.940485 4:36.275898 
0.03193318010570578 0.2662344340712438 1 1:23.489618 2:58.902537 3:6.0115749 4:36.848984 
0.04491527922566202 0.01157148982288872 1 1:23.649306 2:60.74153 3:5.7793889 4:33.986025 
0.05187837534334071 0 1 1:22.129783 2:59.656944 3:5.9121139 4:35.686908 
0 0 1 1:21.363207 2:61.123532 3:5.9262937 4:35.682431 
0.03099702633100763 0 1 1:21.344931 2:62.946956 3:5.699057 4:32.760813 
0 0 1 1:21.075911 2:62.737933 3:5.7143263 4:33.004527 
0 0 1 1:21.865104 2:65.757171 3:5.5896941 4:31.249163 
0 0 1 1:20.726893 2:62.255793 3:5.7383089 4:33.414794 
0 0 1 1:20.295755 2:63.039974 3:5.7204368 4:33.062785 
0 0 1 1:21.930288 2:65.930882 3:5.4262847 4:29.415959 
0 0 1 1:23.386159 2:68.33141 3:5.3120545 4:27.881676 
0 0 1 1:23.852787 2:68.846321 3:5.1426422 4:26.086569 
0 0 1 1:24.758277 2:72.64442 3:4.9710743 4:23.932369 
0 0 1 1:23.272653 2:69.361232 3:5.1476546 4:26.068083 
0.02720308611541509 0.113284742215667 1 1:22.818707 2:69.968975 3:5.2194729 4:26.722894 
0 0 1 1:23.492426 2:70.580951 3:5.1064428 4:25.475123 
0 0 1 1:24.96877 2:73.899226 3:4.8793004 4:22.908658 
0 0 1 1:24.030437 2:73.14355 3:4.9710839 4:23.895424 
0 0 1 1:21.551024 2:69.407791 3:5.3058526 4:27.725413 
0 0 1 1:19.771035 2:65.525253 3:5.554264 4:30.783431 
0 0 1 1:20.729876 2:67.682072 3:5.374647 4:28.617913 
0 0 1 1:21.537824 2:69.320369 3:5.3221191 4:27.926445 
0 0 1 1:22.274886 2:69.210329 3:5.1952209 4:26.516746 
0 0 1 1:23.545128 2:72.424297 3:4.9945076 4:24.203914 
0 0 1 1:22.150673 2:70.653079 3:5.1168962 4:25.626644 
0.01350247185534106 0.08378267750137398 0 1:21.366283 2:69.959936 3:5.137388 4:25.809643 
0 0 0.01577673136801988 1:24.445998 2:75.062544 3:4.8396737 4:22.473061 
0 0 1 1:23.89928 2:73.915147 3:4.9381129 4:23.584951 
0.04640550524259501 0.2045579850749017 0 1:20.731521 2:70.902586 3:5.2657481 4:27.311122 
0.05885240563214261 0.2667481480573622 0.1327398618413072 1:12.032776 2:53.937261 3:6.9259083 4:49.108088 
0 0.002276114547417842 0 1:15.434886 2:60.73688 3:6.1492141 4:38.17248 
0 0 1 1:25.661665 2:77.767843 3:4.6226107 4:20.273327 
0 0 0.1538185591660817 1:23.508093 2:75.54733 3:4.8621732 4:22.801033 
0.02190839793748454 0.1534638672444356 1 1:24.69337 2:78.114085 3:4.6421429 4:20.500189 
0.01618196120426553 0 0 1:23.481756 2:75.693561 3:4.7154386 4:21.347927 
0.001463779833676764 0.07077348312459972 0 1:17.832058 2:65.974656 3:5.5345622 4:30.539906 
0.01606963350875319 0.0541852169317082 1 1:25.094657 2:79.075223 3:4.5545186 4:19.672445 
0 0 1 1:25.541607 2:80.54151 3:4.5076991 4:19.194299 
0.04913076437062798 0.2368821840408474 1 1:27.26101 2:83.6312 3:4.3219381 4:17.371494 
0 0.01541038597840763 1 1:28.141561 2:83.879555 3:4.2383495 4:16.616281 
0 0 1 1:30.183454 2:87.665277 3:4.0147736 4:14.613374 
0 0 1 1:28.085683 2:86.210475 3:4.1217089 4:15.568966 
0 0 1 1:31.346272 2:90.910904 3:3.8416218 4:13.130953 
0 0 1 1:32.187021 2:92.230055 3:3.7835063 4:12.619527 
0 0 1 1:29.521843 2:87.411713 3:4.0195223 4:14.737249 
0.02968897295900668 0.07494606176790423 1 1:30.386571 2:90.790406 3:3.89657 4:13.585344 
0 0 1 1:31.428585 2:93.042986 3:3.7834183 4:12.625328 
0 0.01411254611109018 1 1:38.86415 2:102.35467 3:3.2823174 4:8.6708329 
0 0 1 1:35.946013 2:99.468557 3:3.4619628 4:10.108825 
0.007433905352604551 0.02126898760621948 0.3105803619713575 1:30.231458 2:92.189378 3:3.8203542 4:12.975467 
0.04222427259524349 0.138024127390006 1 1:36.942018 2:102.33231 3:3.3458596 4:9.2693887 
0 0 1 1:42.030973 2:108.25698 3:3.0674745 4:7.2112908 
0 0 1 1:33.901345 2:97.997038 3:3.52512 4:10.709519 
0 0 0.7492509027722397 1:44.047981 2:111.27649 3:2.8931531 4:6.0987922 
0.03921597394586662 0 0 1:40.693672 2:106.64114 3:3.0361759 4:7.0784381 
0 0.02481538982485429 0 1:47.344013 2:115.47178 3:2.7398301 4:5.0679013 
0.01890426288053328 0.2311194776985848 0 1:52.418504 2:121.45966 3:2.5693775 4:3.9547096 
0 0 1 1:38.06257 2:105.87765 3:3.1927269 4:8.1818682 
0 0 1 1:37.376722 2:104.68579 3:3.2533373 4:8.6135997 
0 0 1 1:41.900364 2:109.36941 3:2.9947766 4:6.8057338 
0 0 1 1:56.256074 2:123.70337 3:2.4499552 4:3.1751706 
0 0 0.9884202843774677 1:37.008336 2:103.78732 3:3.2243028 4:8.4655674 
0.02934138683494772 0.1367084984203508 0.1869444654329899 1:19.946097 2:77.076401 3:4.6717576 4:21.101657 
0 0 0.8785795353337308 1:48.716555 2:116.95561 3:2.7073947 4:4.8311573 
0 0 0.2180336598582544 1:39.091885 2:107.19732 3:3.1299693 4:7.7315136 
0 0 0.6699438168200101 1:37.708012 2:104.8113 3:3.1980334 4:8.2102292 
0 0 1 1:40.603537 2:108.62556 3:3.073972 4:7.3310498 
0.03376507931268121 0.01724820385436363 1 1:43.726016 2:113.3178 3:2.914554 4:6.2478609 
0.01125592002155514 0 1 1:38.555104 2:106.33593 3:3.1682379 4:8.0258424 
0.04829227847107814 0.2125770657323195 0 1:30.397767 2:93.93044 3:3.5935292 4:11.289246 
0 0 0.1077343798646943 1:21.737103 2:80.785321 3:4.4394308 4:18.702355 
0 0 1 1:45.595416 2:114.4636 3:2.8213976 4:5.6146619 
0 0 1 1:46.513978 2:117.39231 3:2.7772144 4:5.2956284 
0.01719684086178624 0 1 1:54.314161 2:121.72862 3:2.5002437 4:3.4996694 
0 0 1 1:43.322136 2:111.66047 3:2.9397908 4:6.3677579 
0 0 0.354269954646202 1:30.689556 2:97.822269 3:3.6219066 4:11.436987 
0.06422364660258967 0.0337388498878252 0 1:55.452632 2:124.33374 3:2.4264265 4:3.0811368 
0 0 1 1:42.407999 2:111.93176 3:2.9470051 4:6.4449807 
0.01827621036102915 0.1759010918255764 0 1:45.986389 2:114.01042 3:2.7494333 4:5.1736526 
0.03959003869183 0.1870047533386814 0 1:61.185304 2:130.95029 3:2.2909488 4:2.2676545 
0.00411317322567602 0 1 1:52.356363 2:122.92886 3:2.5395524 4:3.7982189 
0 0 1 1:42.19862 2:111.44351 3:2.9365297 4:6.4316052 
0.0181599514300366 0.08766770883158004 1 1:60.458271 2:132.09329 3:2.2683466 4:2.1993291 
0 0 1 1:55.570344 2:126.94088 3:2.3950004 4:2.9599625 
0.05838934431552934 0.2614669053059968 0.1585833098890551 1:6.9131496 2:45.648466 3:8.3289974 4:72.354086 
0.07914107366090312 0.3657273230620917 0.2342598884391256 1:4.5215205 2:37.520539 3:10.596894 4:117.03384 
0.00240926381298211 0.03177293706066843 0 1:25.149727 2:90.045804 3:4.0128554 4:14.752187 
0 0 1 1:43.000393 2:112.51583 3:2.8848309 4:6.1382943 
0 0 1 1:47.358188 2:118.43726 3:2.6662055 4:4.747907 
0 0 1 1:58.533776 2:122.16217 3:2.3295688 4:2.6302984 
0.2045002699695103 1 0.1670141488963479 1:76.391053 2:106.51939 3:2.1578023 4:-0.29676171 
0.1499543955824659 0.6814135084664354 0.4321202092145582 1:30.60265 2:44.705524 3:3.0926376 4:10.924584 
0.1500385081322875 0.6815547698159118 0.4324719178631593 1:23.430702 2:36.233583 3:4.2487078 4:28.548737 
0.08905241898256755 0.4067800906112119 0.2578324165304298 1:19.990255 2:32.10855 3:5.4531847 4:50.32262 
0.08999128117000454 0.4052995306936333 0.2580885162755874 1:17.898862 2:30.029759 3:6.2658385 4:65.477855 
0.03787334211579013 0.1737659777660676 0.1079864033757519 1:16.258368 2:27.881981 3:7.8160373 4:96.443085 
0.09145817348060001 0.4172462850624375 0.1074188500611797 1:16.227732 2:27.3472 3:8.3087056 4:107.91163 
0.13022304326567 0.5926067221435832 0.4496488995080125 1:15.312874 2:26.318964 3:8.9918078 4:124.71915 
0.114072476957654 0.5183874452478306 0.3735312049432119 1:14.505145 2:26.670717 3:9.8202097 4:139.79776 
0.1139298296812151 0.5167230608583776 0.3895695043240419 1:13.709425 2:25.905526 3:10.344316 4:152.10688 
0.06385218004655786 0.289425055540532 0.346881235821045 1:13.442088 2:25.615321 3:11.148084 4:168.60374 
0.07522864476615571 0.342717405677276 0.1313465652769887 1:12.079971 2:24.828164 3:11.951292 4:188.67212 
0.04997479649132908 0.2267619505901642 0.1572801239881103 1:12.034005 2:25.68817 3:12.333199 4:190.91684 
0.09195824913523645 0.4180756261148628 0.326103723080212 1:11.446598 2:24.826384 3:12.692283 4:201.98562 
0.04313913244178615 0.1966318918528709 0.1360605644797969 1:10.372606 2:23.902314 3:13.41772 4:224.68806 
0.01783199353589129 0.07761677521294352 0.04289950792954472 1:9.6818013 2:24.037526 3:13.56771 4:225.84344 
0.0290150509415204 0.1296686423814356 0.08067145813051806 1:9.3369768 2:23.835655 3:14.246179 4:244.4285 
0.03316972149001794 0.1458978075201273 0.08405777292395586 1:10.033413 2:24.481429 3:13.851366 4:229.15234 
0.03894904519492018 0.1749643869656587 0.104178580912355 1:10.746804 2:25.563841 3:13.363341 4:208.92697 
0.0173297105136799 0.076674174267248 0.04183355233060674 1:9.407137 2:24.807599 3:14.14582 4:231.37135 
0.02529020093760509 0.1190530295007784 0.07071907003223418 1:9.4656548 2:25.233393 3:13.929584 4:223.81733 
0.01810273499815827 0.07732102351623675 0.04875592400909071 1:9.5341855 2:25.614786 3:13.773025 4:217.18746 
0.01878156510304038 0.08603383620439499 0.06284574228726891 1:10.003927 2:26.517225 3:13.596042 4:209.24858 
0.07841478483963797 0.3542701373749114 0.2224090422417188 1:10.164179 2:27.417304 3:13.412326 4:201.1535 
0.05263916359749445 0.2421573029628776 0.1352373445491807 1:10.818557 2:28.54452 3:12.743701 4:180.98705 
0.03942512477312186 0.1798198393707041 0 1:10.972637 2:29.323061 3:12.354637 4:168.29896 
0.07349752539624303 0.3350558305466762 0.2057190637027437 1:11.345401 2:30.501925 3:12.135014 4:161.13666 
0.04494783394229451 0.2071554707451237 0.09696813726768369 1:10.474366 2:29.774325 3:12.435966 4:169.17643 
0.05966405183834127 0.2854113721070639 0.1002344477754786 1:10.606616 2:31.020739 3:11.958292 4:156.08581 
0.09005087691554939 0.4136384104297713 0.2586957021375726 1:11.623354 2:33.361681 3:11.325135 4:138.45874 
0.07368023342674095 0.332863870396484 0.06232193524387164 1:12.514649 2:36.295468 3:10.399235 4:115.37537 
0.05398610356783111 0.2479335886014336 0 1:11.81222 2:34.875238 3:10.836609 4:125.59726 
0.07074531858114008 0.3204130123099839 0.1989900795282083 1:10.295885 2:34.428948 3:11.111952 4:132.5199 
0.05589339895479187 0.2585585008941842 0.1489789356020435 1:8.7542983 2:31.61639 3:11.966609 4:155.86133 
0.06491175056739071 0.2771333615916232 0.163206960847441 1:8.7268448 2:31.807135 3:11.77539 4:150.80367 
0.04425000996727497 0.2202615888235182 0.1583491133789157 1:8.7938598 2:32.354502 3:11.724181 4:149.25188 
0.04306396162590632 0.203497642140087 0.1322996691683586 1:8.9842645 2:33.463801 3:11.301985 4:137.79645 
0.06666096333856621 0.3010170659689983 0.06777311195276908 1:12.088528 2:38.296166 3:10.099568 4:107.45192 
0.05002715179075223 0.2282452617372036 0.1482143446121783 1:9.0236939 2:33.205104 3:11.502449 4:141.55636 
0.05445544857697299 0.2512529901826254 0.1505337853906821 1:7.8176629 2:31.963673 3:12.152192 4:158.38684 
0.1171165488021564 0.5323100781871956 0.3300368576701863 1:7.483395 2:30.459224 3:12.595579 4:170.53373 
0.06628632346065533 0.3056966365098111 0.1928338333974184 1:10.188679 2:36.72322 3:10.609303 4:119.0187 
0.04222753841504768 0.1996813303238802 0.1553870473081458 1:10.37414 2:37.147846 3:10.39218 4:113.7964 
0.03787174152198306 0.1732176757682533 0.1317094542570732 1:10.429427 2:36.046882 3:10.681856 4:120.59019 
0 0 1 1:12.31255 2:41.400023 3:9.2612337 4:89.01348 
0 0 0.5541686190927511 1:12.215453 2:41.973042 3:9.2002098 4:87.810333 
0.009914102146224185 0.1003929301065294 0 1:9.5827626 2:36.411006 3:10.528946 4:117.13154 
0.05827374559676655 0.2637639593748871 0.1987541045528232 1:9.8367412 2:38.183469 3:10.111151 4:107.47575 
0 0 0.001153980258077103 1:10.574271 2:38.990441 3:9.8508782 4:101.8718 
0.06196948119060901 0.2860270150713029 0.06979787895993812 1:11.470613 2:40.992811 3:9.5051301 4:94.014814 
0.0008885517824703402 0.02461295485960074 0 1:9.193568 2:36.797074 3:10.327089 4:112.43294 
0.03829216853235901 0.1775955370101663 0.09085301124528752 1:9.8782088 2:38.590202 3:10.013363 4:105.2114 
0.009242368315797778 0.06060073317750638 1 1:12.989584 2:45.656035 3:8.3622622 4:72.02647 
0.01842336093102779 0.07204135679514857 0.04300013266852903 1:8.1969452 2:36.435719 3:10.646974 4:119.39998 
0.03074225701393304 0.1321880216679173 0.07196368536982864 1:8.1117036 2:37.316819 3:10.482243 4:114.97361 
0.03451986741016052 0.156063847782095 0.1086831970298737 1:8.1579103 2:37.256208 3:10.38202 4:113.47482 
0.01036161481364245 0.02891733102000793 0.01969356232105406 1:8.8513952 2:38.211282 3:9.859711 4:102.22055 
0 0 0.07998917436978079 1:9.7581536 2:41.212574 3:9.3219886 4:90.885255 
0.04446390476712549 0.1981233238783073 1 1:13.935498 2:49.677863 3:7.7451583 4:61.40149 
0.01626359294442598 0.06436577199078815 0.4788865931075467 1:14.634982 2:52.369814 3:7.2767518 4:53.766005 
0.03827722139489156 0.1767158483191805 0.1193169523595986 1:8.2678123 2:40.229409 3:9.6938693 4:98.236681 
0.05711519564248934 0.2576059723437022 0.1672594119031658 1:7.0622989 2:37.527012 3:10.545341 4:116.25823 
0.03715293687383309 0.1642840881338238 0.1253350162657096 1:9.5901726 2:44.58574 3:8.6984061 4:78.158085 
0.009265702880402779 0.04835055885872198 0 1:10.418547 2:44.694743 3:8.5755139 4:76.092029 
0.03057664246688296 0.1465539476970162 0.07407850075431996 1:14.180259 2:52.903842 3:7.2329553 4:53.132607 
0.02463897538768959 0.1345020568997188 0.1019988315205228 1:11.908604 2:49.275779 3:7.904481 4:64.085775 
0.01470812811600472 0.05473529191207728 0.08975253430349164 1:11.749295 2:51.188179 3:7.6099958 4:59.180132 
0.02553211645572959 0.1126817061475769 0 1:13.423422 2:55.051193 3:7.00727 4:49.740134 
0.07502574323724465 0.339611714376117 0.02089122641029565 1:15.511105 2:59.734676 3:6.4635886 4:41.849758 
0.007968719684697066 0.01854868051044394 0.0169563542719479 1:8.1962426 2:43.484311 3:8.9204818 4:82.520732 
0 0 0.09323766929062798 1:9.0070247 2:46.250466 3:8.3071398 4:71.218226 
0.02859946742681289 0.1235290878994941 0.08712868347467663 1:7.7231386 2:42.363514 3:9.088857 4:85.970655 
0.02468760537981827 0.1079297951818371 0.07137466688893394 1:7.1025918 2:41.344225 3:9.4814534 4:93.339978 
0.01764449915126448 0.08388275223351073 0.05567261277451709 1:5.9790693 2:37.861558 3:10.44035 4:113.45941 
0.02419169428390121 0.1168027098822615 0.07079266479043254 1:6.8514523 2:40.265453 3:9.5818034 4:95.702446 
0.009869672222190946 0.03347440492435079 0.0206450266151798 1:6.759717 2:39.326244 3:9.8301663 4:100.71586 
0.001765735700063422 0.001307935726638496 0.002706585620351384 1:6.6181954 2:39.487097 3:9.9751244 4:103.64288 
0.03850977392237487 0.1428677325633175 0.1234750529658102 1:9.6790931 2:48.18512 3:7.8802414 4:63.824009 
0.03140176278677288 0.1412070565268712 0.06367562871786163 1:7.9633979 2:43.916949 3:8.7509532 4:79.146913 
0.02474013681204459 0.1237579605441762 0.1479531642904501 1:12.225953 2:55.895619 3:6.9183482 4:48.669292 
0.01059408367945454 0.03705188995608714 0 1:16.132511 2:62.882418 3:6.0255965 4:36.278207 
0.00317503377441426 0.005449129248034161 0.06073587552624761 1:14.706912 2:60.756869 3:6.2590954 4:39.324692 
0.03340442242413507 0.1385498438123424 0 1:18.425335 2:69.092036 3:5.46416 4:29.229072 
0.01643021179559117 0.08918977747290024 0.06833730702861317 1:8.6536831 2:46.515382 3:8.2171129 4:69.665464 
0.03456185145685995 0.1557562055510497 0.09656698933885222 1:6.3553476 2:41.092757 3:9.6329698 4:96.378888 
0.03218402738979768 0.1427054504963049 0.06739270091310055 1:11.041855 2:54.411479 3:7.1540852 4:52.156814 
0.003960680670595245 0.03102706924521619 0.1235713909489422 1:15.951254 2:65.904578 3:5.7500124 4:32.755014 
0.003014155832707444 0.006284018447617934 0.165489983630967 1:14.518162 2:61.832095 3:6.0467287 4:36.503767 
0 0 0.02212574406676314 1:16.606462 2:67.554529 3:5.5633998 4:30.519479 
0 0 0.1010668121023243 1:13.207562 2:60.684232 3:6.3496677 4:40.502755 
0.04501435369460112 0.2121179214588303 0.1610270243225971 1:14.849656 2:64.544542 3:5.9440521 4:35.132019 
0.01023300106057164 0.04302564201096058 0 1:11.269464 2:56.428596 3:6.8836676 4:47.94614 
0.04681283279859658 0.2385076177693303 0.116905222601741 1:6.9361904 2:42.896211 3:8.8853194 4:81.946233 
0.05097014815117194 0.2301681932514065 0.1351650445798459 1:19.09928 2:73.488057 3:5.1040617 4:25.252251 
0.03565103252191339 0.0780496635556639 0.04793700713477806 1:16.170054 2:68.417533 3:5.5310506 4:30.181923 
0.04394151121610879 0.1862501399206657 0.1352562581102914 1:14.881329 2:67.387207 3:5.7081749 4:32.0955 
0.01460680742841049 0.06410821021371595 0.07846206614219406 1:11.80347 2:58.895239 3:6.397199 4:41.303014 
0 0.04839163070634894 0 1:25.025774 2:86.649868 3:4.1642933 4:16.01547 
0 0 1 1:41.367277 2:98.178716 3:2.9738394 4:7.1436138 
0.4895656794975513 1 0 1:57.763636 2:113.96209 3:2.3566263 4:2.8382986 
0.03919521422115119 0.1909046031092482 0.1210720127372419 1:4.5520271 2:38.93203 3:10.181524 4:107.10647 
0.06324483316566552 0.2876075301891438 0.1815368601696652 1:3.5586175 2:33.812332 3:11.728626 4:143.2449 
0.1136796030736592 0.5176443772362901 0.3283038224860411 1:3.356166 2:32.761215 3:12.059577 4:151.53251 
0.04906532330296876 0.2280196581208809 0.1444735806448521 1:3.5925828 2:33.769065 3:11.61063 4:140.30697 
0.0552312402067691 0.2375694996533265 0.152762466368935 1:4.6319402 2:39.002316 3:10.12115 4:105.98489 
0.1649561169145775 0 0.04870071776393896 1:32.445262 2:101.5831 3:3.2923767 4:9.0892563 
0.04620261999424785 0.1896550159926906 0.2202488089648406 1:19.138 2:79.192964 3:4.5457258 4:19.795968 
0 0 0.1370922613531168 1:70.464125 2:143.4461 3:1.9118467 4:0.39162415 
0 0 1 1:75.829871 2:149.27272 3:1.7999326 4:-0.24434309 
0.04019635600203544 0.1795007642314385 0 1:28.557181 2:96.507135 3:3.5508819 4:10.992437 
0.01134184047024883 0 0 1:148.95519 2:177.80978 3:0.74899456 4:-8.1506191 
0 0.05660148330961324 0 1:113.81605 2:167.66583 3:1.1776141 4:-4.213062 
0.001082754621144549 0.007482498662320572 0 1:44.656758 2:119.55808 3:2.7314992 4:5.2104243 
0 0 1 1:65.959047 2:140.3991 3:2.0166566 4:0.98374982 
0 0 0.04667975075803363 1:163.11321 2:181.56963 3:0.61013776 4:-9.933149 
0 0 1 1:69.093958 2:142.73845 3:1.9347514 4:0.51643653 
0 0 1 1:84.598515 2:156.00949 3:1.6405497 4:-1.1444332 
0.004499305440556323 0 1 1:70.093122 2:143.96316 3:1.9205279 4:0.42666255 
0.005683506041794916 0.01011062083866691 0 1:53.872337 2:129.86481 3:2.3726941 4:3.0085657 
0.07676628517440005 0.3516913759100208 0.515087530954214 1:149.42286 2:181.31377 3:0.76641619 4:-7.8275026 
0.005499104763996972 0 0 1:123.45402 2:172.54613 3:1.0322411 4:-5.1644727 
0.003313004313786464 0 0 1:32.306803 2:103.07788 3:3.3179842 4:9.1726731 
0.01568220805707519 0.1208884272166199 0.01347783424448176 1:34.709058 2:107.43513 3:3.2228777 4:8.4927923 
0.01597522531184997 0.05602472120905665 0 1:70.477053 2:144.7797 3:1.915023 4:0.40467906 
0 0 1 1:73.183284 2:145.88905 3:1.8494728 4:0.040308844 
0.009537068093951329 0.02371567048022213 0 1:45.666631 2:120.67976 3:2.6220683 4:4.5051404 
0.02047698114741544 0.09171728069659794 0 1:65.802105 2:141.97577 3:2.0250902 4:1.0147685 
0.0203863650461985 0.08817068829300029 0 1:35.906155 2:107.42249 3:3.0723005 4:7.4667029 
0.01094062782636268 0.09135358036660332 0 1:73.850312 2:146.33808 3:1.8107129 4:-0.1698653 
0 0 1 1:104.54372 2:165.75086 3:1.2786748 4:-3.287618 
0.0467409904693654 0.2107343146782058 0.2196686712085786 1:186.7036 2:185.44585 3:0.38087369 4:-13.647135 
0.01057087552986934 0.1306267186325005 0.1707529856010512 1:94.727441 2:160.05452 3:1.4118003 4:-2.4235593 
0.01379392629516691 0.1525333265146574 0.6109630462742605 1:69.293697 2:144.59208 3:1.9441289 4:0.56338905 
0.002847368383170268 0.04917432203623122 1 1:78.759383 2:151.09264 3:1.7097664 4:-0.72119765 
0.01392763379612451 0.009553562066077485 1 1:88.89397 2:159.43331 3:1.5268603 4:-1.7270417 
0.01901673883979823 0 1 1:94.830016 2:161.96722 3:1.4449226 4:-2.2470343 
0 0 1 1:76.444341 2:148.39341 3:1.7907483 4:-0.31428552 
0 0.01974373266387047 0 1:60.05719 2:136.28515 3:2.178662 4:1.8979365 
0.02798450724780301 0.1555185472052059 0 1:51.051432 2:126.25234 3:2.4202761 4:3.297859 
0.002668471025864697 0 0 1:29.6385 2:100.3111 3:3.5117074 4:10.603422 
0.00987437576300236 0.1040453433353298 0 1:21.393615 2:85.199066 3:4.2498788 4:16.823926 
0 0 0.05767799426594766 1:9.9986119 2:57.94392 3:6.5414272 4:43.130415 
0.007835850921443954 0.04738616096058827 0.03847270460595829 1:54.457991 2:132.80556 3:2.3653421 4:2.9421455 
0.0424472909736368 0.2042470861046904 1 1:98.571238 2:166.45281 3:1.3932457 4:-2.524238 
0.120127629768336 0.5432605080137506 1 1:159.14754 2:184.03651 3:0.6509288 4:-9.0112138 
0 0 0.03410691114896752 1:13.136821 2:67.613746 3:5.6352458 4:31.287232 
0 0 1 1:86.304713 2:155.10605 3:1.5849223 4:-1.4767134 
0 0 1 1:73.843309 2:147.48983 3:1.8233369 4:-0.089849208 
0 0 1 1:118.51799 2:175.17534 3:1.0965623 4:-4.4393467 
0.02663966235710518 0.08081368410008277 1 1:107.18902 2:168.86326 3:1.2310126 4:-3.4859552 
0 0 1 1:99.494016 2:164.05826 3:1.3521391 4:-2.7804339 
0.02419633212879051 0.07329403824639415 1 1:116.26617 2:174.47373 3:1.1083732 4:-4.2725886 
0.07565376998096823 0.3425023569257656 1 1:193.40624 2:188.67407 3:0.33928613 4:-14.387475 
0.04541804185010679 0.2063051498195792 0 1:56.288343 2:132.3654 3:2.2377064 4:2.2150803 
0 0 0.04220187806575606 1:34.283464 2:107.55 3:3.2293932 4:8.5033473 
0 0 1 1:138.00934 2:180.83011 3:0.86549858 4:-6.4035785 
0.02398204324757008 0.04385190629392 0 1:70.366626 2:147.92621 3:1.9278704 4:0.48719371 
0.02437592465363236 0.1537283933163148 0.09851912527162572 1:49.010493 2:127.1797 3:2.5426013 4:3.9719182 
0.007154763418898587 0.03377713188846993 0.02407420449813219 1:40.612296 2:117.46325 3:2.8836942 4:6.1245062 
0.04200785066708718 0.1730822449851349 0.1625351955219412 1:37.531722 2:110.76417 3:2.9911124 4:6.8623411 
0.001384588353143123 0.07736244958062115 0 1:61.129991 2:139.31183 3:2.1523987 4:1.7278985 
0.03959114347639392 0.0585743240111882 1 1:80.938157 2:154.0338 3:1.6754609 4:-0.88853465 
0 0 0.8437090849361161 1:74.209327 2:149.26134 3:1.808603 4:-0.15058551 
0.014326591974904 0 0 1:59.232391 2:136.48359 3:2.1750104 4:1.8639083 
0.01066678113973822 0.01359185056702761 0 1:38.971922 2:114.83152 3:2.980985 4:6.7843168 
0.005077463688142267 0.02929384480424912 0.05251266372371418 1:42.046819 2:118.90707 3:2.8150263 4:5.6724814 
0.04291553857576533 0.03884730320231607 0.2047309377876088 1:45.736044 2:122.96729 3:2.6682192 4:4.790808 
0 0.006645638492232561 0.001137520240349743 1:45.136888 2:122.21446 3:2.6757687 4:4.8117203 
0.6779063435782846 1 1 1:54.986748 2:111.427 3:2.4314745 4:3.3436215 
0.07939880371202748 1 0.7063094129250357 1:67.328941 2:118.42427 3:2.0901546 4:0.93733074 
0.04386546942901878 0.1715025912588355 0 1:44.305467 2:115.29048 3:2.6962194 4:5.0346963 
0 0.05868022584078735 0 1:97.786704 2:157.30732 3:1.3887016 4:-2.8081475 
0 0.004896607263694282 0 1:91.598618 2:155.10632 3:1.5206295 4:-1.98626 
0.02696900894228022 0.01789484693332509 0.08028390552559632 1:106.39536 2:161.42855 3:1.2541836 4:-3.6959432 
0 0 1 1:70.32322 2:142.72047 3:1.9352605 4:0.47868985 
0 0 1 1:64.726079 2:137.59144 3:2.0702734 4:1.2498749 
0.0869548434158512 0.27508416435882 1 1:137.01 2:171.17067 3:0.88585635 4:-7.0273235 
0.03151825808897384 0.1794685004865968 1 1:124.17008 2:167.96068 3:1.0367126 4:-5.5173831 
0 0.01110116027655785 0.4429618075968719 1:129.09214 2:170.42557 3:0.99554012 4:-5.9577222 
0.00386632387863561 0.09668007517516219 0 1:134.00122 2:172.54808 3:0.91908652 4:-6.5040185 
0 0.001136603873721346 1 1:98.384719 2:156.86087 3:1.3828946 4:-2.8785882 
0 0.03646866556240307 0 1:59.304865 2:132.49913 3:2.1801373 4:1.8912152 
0 0 0.9625777362428977 1:103.73062 2:160.3482 3:1.2938728 4:-3.402056 
0.04338141817412722 0.1260578180044462 0 1:72.804433 2:142.86427 3:1.8236847 4:-0.11925253 
0 0 1 1:68.14912 2:140.78336 3:1.9807779 4:0.74767621 
0.03723119034783939 0.170132784766204 0 1:55.823712 2:126.79724 3:2.2530322 4:2.3467197 
0.002391068392074395 0.04477615467149446 0 1:94.121238 2:158.77309 3:1.4576554 4:-2.2664302 
0 0 1 1:132.99831 2:170.98381 3:0.92887203 4:-6.4806576 
0.04655823655080668 0.02954686747063348 0.1049595151831254 1:153.94954 2:175.92116 3:0.69773949 4:-9.1539757 
0 0.1007642806735638 1 1:116.58075 2:164.98903 3:1.1028046 4:-4.806444 
0.07667020879554244 0.3591328799971223 0.2674748920888967 1:135.0597 2:176.58695 3:0.90408462 4:-6.3360191 
0.002133662363689174 0 0 1:56.120673 2:129.40549 3:2.2607794 4:2.3798398 
0.002487206182954885 0 0 1:115.87965 2:169.05534 3:1.1374878 4:-4.4091157 
0 0.03910708752523007 0 1:106.75968 2:162.51642 3:1.2514983 4:-3.6670272 
0 0 1 1:69.452018 2:142.27808 3:1.9502915 4:0.57405327 
0.00940906654378339 0.1127318178289232 0 1:130.76839 2:173.33292 3:0.96820048 4:-5.9683893 
0 0 1 1:74.275852 2:146.25502 3:1.8241867 4:-0.12962983 
0.004306553362538719 0.03714435209134409 1 1:87.651408 2:156.87678 3:1.5781685 4:-1.5187324 
0 0 1 1:62.201517 2:135.79885 3:2.1138336 4:1.5251513 
0 0 0.8321816532219061 1:151.55752 2:174.8821 3:0.72081421 4:-8.8808546 
0.04457683578653113 0.1413996788712422 1 1:123.10834 2:169.19854 3:1.0337927 4:-5.3300962 
0.06913716373871606 0.3122638705879183 0.6473228498256779 1:165.48634 2:177.84131 3:0.58981126 4:-10.850583 
0.006424357677817188 0.04293481310438746 0 1:83.877979 2:150.60904 3:1.6190867 4:-1.3080273 
0 0.05731020451660684 0 1:92.861238 2:158.25686 3:1.4832374 4:-2.1022542 
0 0.02197738383935285 0 1:162.46648 2:179.58954 3:0.62832884 4:-10.048769 
0.00693564617385042 0 0 1:86.697596 2:152.28567 3:1.5667358 4:-1.6123153 
0 0.01650832951472695 0.1558199995376769 1:163.65541 2:181.29069 3:0.61337924 4:-10.035888 
0.02996099523896958 0.1443984029181681 1 1:148.03867 2:176.04572 3:0.75435252 4:-8.207692 
0.0101909660420309 0 0 1:129.483 2:171.77776 3:0.9721198 4:-5.9352139 
0 0.009623958354677506 0 1:121.01144 2:168.62238 3:1.0559521 4:-5.0930541 
0 0 1 1:141.8628 2:174.1613 3:0.8410326 4:-7.4250216 
0.01086296161057634 0.09922793168899199 0 1:51.190055 2:123.37371 3:2.4101133 4:3.2951735 
0.02763934477264588 0 0 1:89.946375 2:155.54622 3:1.5241625 4:-1.8680238 
0 0 0.9694134519835277 1:109.75607 2:163.18394 3:1.1926323 4:-4.0353946 
0.003592783217716159 0.06940403008545312 0 1:111.79887 2:164.87986 3:1.1757622 4:-4.162065 
0.03065830304031416 0 0 1:135.67548 2:173.42307 3:0.88504837 4:-6.6719105 
0.01782282305182835 0 0 1:102.4056 2:161.12549 3:1.3231768 4:-3.1599054 
0.004656375642541708 0 0 1:47.628349 2:120.26997 3:2.5538959 4:4.1427922 
0.00168441531304138 0.02164330270617514 0.003415152272257809 1:35.815035 2:106.10357 3:3.0941663 4:7.6938507 
0 0 0.2242406028155847 1:14.986911 2:70.626592 3:5.215268 4:26.759264 
0 0 1 1:147.86957 2:172.68484 3:0.74881918 4:-8.550776 
0.0648846118488447 0.2832425837952767 0 1:178.61524 2:178.95893 3:0.46553863 4:-13.200655 
0.07507387324533321 0.3357405612798969 0 1:169.13957 2:178.22823 3:0.54902287 4:-11.46947 
0.008413811664964046 0.138738316082323 1 1:134.59965 2:171.18997 3:0.89432798 4:-6.7180306 
0.02141023799407695 0.1587110862210663 1 1:155.41899 2:175.64118 3:0.68827179 4:-9.3984532 
0.0008679935492376667 0 0 1:110.88067 2:166.49173 3:1.195835 4:-3.9600634 
0 0 0.1937159782758549 1:59.296786 2:132.96653 3:2.2078766 4:2.0707627 
0 0.02363940442003015 0 1:117.91939 2:169.88664 3:1.0885314 4:-4.6745451 
0.01969481995519693 0.2273173054831848 1 1:138.30215 2:172.68068 3:0.84241156 4:-7.1501919 
0.0007817190288842979 0.1478012432088077 1 1:95.407426 2:155.16207 3:1.391696 4:-2.6820475 
0.02286754065104186 0.07800600417649194 0 1:98.92149 2:159.03462 3:1.3437762 4:-2.9491328 
0 0.004490253434776914 0 1:86.310719 2:153.51644 3:1.579553 4:-1.4979952 
0.03636351944573564 0.1368307679952945 0 1:77.814632 2:147.55916 3:1.7044149 4:-0.73492727 
0.02417922299037228 0.03950389058114284 0 1:111.7375 2:165.95625 3:1.1708539 4:-4.1311198 
0.0007693005731337695 0 0 1:96.935775 2:158.84814 3:1.3947471 4:-2.6510685 
0.09607096505751467 0.4156108166314965 1 1:176.83278 2:176.66142 3:0.4858074 4:-13.26016 
0.04612712903145002 0.1948760771055372 0.06836973474229699 1:144.18347 2:179.12842 3:0.78536626 4:-7.374448 
0.003151434786563908 0.05819685717817955 0 1:108.05852 2:163.39482 3:1.212449 4:-3.843129 
0 0.06387850826906016 0 1:139.46764 2:174.63591 3:0.82392672 4:-7.1487385 
0.01611240623019725 0 0 1:128.418 2:171.79157 3:0.95425778 4:-5.8653507 
0.008869394139093628 0 0 1:85.221695 2:151.43512 3:1.5961391 4:-1.4266124 
0.03171800895085845 0.1839876482816795 0.6843624268413143 1:142.84552 2:175.1811 3:0.80375207 4:-7.5284535 
0 0.02621716211435962 0 1:105.16544 2:162.05734 3:1.251377 4:-3.551378 
0 0 1 1:130.12706 2:169.72492 3:0.94230994 4:-6.2319298 
0 0.09425838722069815 0 1:97.530723 2:158.87118 3:1.3689117 4:-2.7650647 
0.04386238681235669 0.1870002724180977 0 1:151.68092 2:176.95745 3:0.72528424 4:-8.6677621 
0 0 1 1:134.29434 2:171.6049 3:0.91224538 4:-6.5962093 
0.03032048990862684 0.1544734909676057 0 1:159.02759 2:179.34421 3:0.64158346 4:-9.5524334 
0.1181793647928244 0.4812459416792709 0.3404170430765142 1:203.92496 2:178.13823 3:0.23743322 4:-19.537887 
0.01535542971669997 0.0535498836649049 0 1:101.97071 2:161.50718 3:1.2984508 4:-3.1936756 
0.000699274409348333 0.118338009923948 1 1:114.23883 2:164.29789 3:1.1302514 4:-4.5393517 
0.04147662751725593 0.159757580291961 0.6172781139306905 1:21.835033 2:83.831667 3:4.2006408 4:16.668878 
0.01442873710322463 0.2033096443994548 0 1:132.60099 2:171.79412 3:0.92106942 4:-6.3669776 
0.007245055174985641 0.04021526985537542 0.7173241174037128 1:196.90661 2:176.72789 3:0.2946926 4:-18.035282 
1 0.6750120298865243 1 1:53.895705 2:113.00186 3:2.4764829 4:3.6225103 
0.04105374145791896 0.2323843505764276 1 1:105.63565 2:158.04561 3:1.4022495 4:-3.3765425 
0.04138579891201675 0.2173054650740111 0.1501537936999214 1:218.33361 2:199.45368 3:0.078580881 4:-17.441902 
0.1128792027294518 0.5118509013353366 0.324261278070444 1:243.17926 2:190.19052 3:-0.16786561 4:-27.34573 
0 0.06323785310468998 0.05204566196213185 1:153.82107 2:193.40002 3:0.66947106 4:-7.4616885 
0.05549752426633189 0.2570507178497796 0 1:96.082505 2:168.84301 3:1.3934399 4:-2.3242892 
0.04203420823788807 0.1915932663138767 0 1:161.91287 2:195.97903 3:0.58852432 4:-8.2526342 
0.08301269628257352 0.3816988940181516 0.2481276184353771 1:217.54682 2:196.13993 3:0.053556315 4:-18.083997 
0.1269071087086568 0.5766816251599372 0.3741057068762504 1:218.29321 2:193.59484 3:0.049537059 4:-18.920493 
0.01647313440005069 0.08174935836574417 0.3039738765444741 1:210.82566 2:197.83558 3:0.11734136 4:-16.198794 
0.04006160059564602 0.1713300641589043 0.1096258578743473 1:223.9977 2:194.78471 3:0.010628789 4:-20.019284 
0.005365101664463261 0.0500802809479488 0.9914865044053172 1:174.52716 2:195.37235 3:0.44376754 4:-10.105473 
0.1009034397478147 0.4537636975221511 1 1:187.20335 2:195.9691 3:0.32312572 4:-12.037314 
0.004072268479175042 0.06720707662642203 0 1:199.47928 2:201.75212 3:0.23609967 4:-13.236795 
0.0129967788105645 0.1779887966242632 0.1615191114656989 1:204.71994 2:199.21593 3:0.19172823 4:-14.655161 
0.02069118952621763 0.09639949797384821 0.0595179724184132 1:259.898 2:186.08662 3:-0.26521729 4:-35.892232 
0.05090876933630903 0.227060715590575 0.4769215347811689 1:136.76701 2:186.40579 3:0.82982337 4:-5.9938997 
0.03712544293173507 0.1824482801254092 0 1:100.54283 2:171.02223 3:1.3126451 4:-2.7543156 
0.02742593643359482 0.136065295506386 0.1192261101949012 1:109.76586 2:177.6119 3:1.1800856 4:-3.5071894 
0.01698083000620672 0.07271685940547092 0.01317434746533129 1:128.15305 2:186.5677 3:0.9491317 4:-5.0009936 
0 0 0.2464144758689046 1:194.58139 2:200.24599 3:0.27711481 4:-12.624311 
0.01037813669554128 0.0563692797013632 0 1:174.85737 2:200.66613 3:0.47095 4:-9.5189671 
0 0 0.04299337303698646 1:144.66435 2:191.79413 3:0.77037734 4:-6.4727093 
0.06004187672627687 0.2781497765979495 0.3219104839101505 1:131.1671 2:185.84197 3:0.89339498 4:-5.416703 
0.02489040606784516 0.1262773847964899 0.07854584595268038 1:152.83918 2:195.31373 3:0.68537954 4:-7.1803403 
